tree
version=v4
num_class=1
num_tree_per_iteration=1
label_index=0
max_feature_idx=27
objective=binary sigmoid:1
feature_names=Column_0 Column_1 Column_2 Column_3 Column_4 Column_5 Column_6 Column_7 Column_8 Column_9 Column_10 Column_11 Column_12 Column_13 Column_14 Column_15 Column_16 Column_17 Column_18 Column_19 Column_20 Column_21 Column_22 Column_23 Column_24 Column_25 Column_26 Column_27
feature_infos=[0.27500000000000002:6.6950000000000003] [-2.4169999999999998:2.4300000000000002] [-1.7430000000000001:1.7430000000000001] [0.019:5.7000000000000002] [-1.7430000000000001:1.7430000000000001] [0.159:4.1900000000000004] [-2.9409999999999998:2.9700000000000002] [-1.7410000000000001:1.7410000000000001] [0:2.173] [0.19:5.1929999999999996] [-2.9039999999999999:2.9089999999999998] [-1.742:1.7430000000000001] [0:2.2149999999999999] [0.26400000000000001:6.5229999999999997] [-2.7280000000000002:2.7269999999999999] [-1.742:1.742] [0:2.548] [0.36499999999999999:6.0679999999999996] [-2.4950000000000001:2.496] [-1.74:1.7430000000000001] [0:3.1019999999999999] [0.17199999999999999:13.098000000000001] [0.41899999999999998:7.3920000000000003] [0.46100000000000002:3.6819999999999999] [0.38400000000000001:6.5830000000000002] [0.092999999999999999:7.8600000000000003] [0.38900000000000001:4.5430000000000001] [0.48899999999999999:4.3159999999999998]
tree_sizes=3342 3404 3389 3395 3395 3412 3397 3389 3391 3417 3373 3401 3404 3397 3384 3412 3407 3370 3401 3401 3380 3399 3420 3409 3379 3392 3398 3407 3380 3401 3395 3378 3392 3403 3407 3376 3369 3366 3414 3355 3416 3387 3398 3362 3399 3363 3405 3352 3395 3401

Tree=0
num_leaves=31
num_cat=0
split_feature=25 26 27 5 22 24 5 25 25 27 25 21 22 27 5 25 25 27 26 25 14 0 5 3 25 25 24 26 25 4
split_gain=329.147 186.322 182.563 57.0531 56.5917 79.8795 45.1992 36.3773 45.944 33.8531 32.8347 26.0458 25.4606 24.7744 19.4994 18.6093 17.0837 16.9839 16.6953 16.3285 16.3139 15.6237 15.528 14.6569 14.224 19.5568 13.5578 12.8176 12.1627 11.029
threshold=1.2175000000000002 0.8045000000000001 0.9105000000000002 0.90350000000000008 1.0525000000000002 1.0305000000000002 0.77950000000000019 0.98650000000000004 0.71550000000000014 0.83950000000000002 1.7615000000000001 1.0775000000000003 1.0525000000000002 1.0195000000000001 0.90350000000000008 0.64350000000000007 0.64350000000000007 0.83950000000000002 0.94850000000000001 0.98650000000000004 1.0000000180025095e-35 1.1825000000000003 1.4045000000000003 1.5715000000000001 0.71550000000000014 0.98650000000000004 0.62350000000000005 0.84550000000000003 0.87650000000000017 1.2515000000000003
decision_type=2 2 2 2 2 2 2 2 2 2 2 2 2 2 2 2 2 2 2 2 2 2 2 2 2 2 2 2 2 2
left_child=1 6 3 7 5 21 26 8 17 22 12 27 13 14 -2 -7 -6 -3 20 23 -9 -4 -8 -17 -5 -26 -1 28 -10 -18
right_child=10 2 4 24 16 15 9 18 11 -11 -12 -13 -14 -15 -16 19 29 -19 -20 -21 -22 -23 -24 -25 25 -27 -28 -29 -30 -31
leaf_value=0.11398397923880289 0.018843843395165261 0.16356896771941834 0.044879656988400629 0.19885338529452209 0.098903868226909705 0.065094069651314229 0.13558754790091232 0.13907956020576473 0.22273149676230425 0.021056351757966801 -0.0021393004326944465 0.1111955813535849 0.1111955813535849 -0.013842050130926792 0.10101186733800618 0.20079302745050659 0.18404544501236345 0.063591592715224271 0.18326494207921895 0.10004198981271296 0.0083649081231070566 -0.042879613420320428 0.23739050278745025 0.10683113248976545 0.27571599179894191 0.19888588726112977 0.046919152631880234 0.25274479763592328 0.08406522355146398 0.10641547069321122
leaf_weight=35.862887620925903 49.809566140174866 57.281001061201096 55.039570584893227 53.047187939286232 36.610031113028526 33.621457144618034 106.59247153997421 17.931443810462952 20.172874286770824 24.406687408685684 123.52772402763367 17.931443810462952 71.725775241851807 56.782905399799347 68.737201273441315 60.269575029611588 146.19107662141323 24.15763957798481 19.425730794668198 44.828609526157379 20.421922117471695 32.127170160412788 17.433348149061203 22.912400424480438 140.712024345994 43.334322541952133 189.02730350196362 123.27867619693279 9.2147697359323484 20.920017778873444
leaf_count=144 200 230 221 213 147 135 428 72 81 98 496 72 288 228 276 242 587 97 78 180 82 129 70 92 565 174 759 495 37 84
internal_value=0.123586 0.146162 0.168678 0.207555 0.121692 0.0896923 0.0858824 0.179301 0.195707 0.128712 0.0399565 0.225206 0.0610044 0.0404717 0.0664875 0.131303 0.160773 0.133912 0.107734 0.148692 0.0694783 0.0125341 0.149897 0.174911 0.244476 0.257626 0.0576139 0.238598 0.179251 0.174327
internal_weight=0 1372.75 999.429 546.909 452.52 248.799 373.323 309.816 252.036 148.433 370.583 170.598 247.055 175.33 118.547 161.632 203.721 81.4386 57.7791 128.011 38.3534 87.1667 124.026 83.182 237.094 184.046 224.89 152.666 29.3876 167.111
internal_count=7000 5512 4013 2196 1817 999 1499 1244 1012 596 1488 685 992 704 476 649 818 327 232 514 154 350 498 334 952 739 903 613 118 671
is_linear=0
shrinkage=1


Tree=1
num_leaves=31
num_cat=0
split_feature=25 25 26 27 25 5 22 9 26 27 27 22 24 5 13 27 21 22 27 5 0 22 0 3 25 24 5 25 26 14
split_gain=267.378 177.308 106.794 103.273 42.2726 35.3767 32.0243 31.1799 30.8177 37.5493 28.7644 24.3998 45.7486 23.1876 19.5379 16.0829 15.2309 14.3368 12.5534 12.7376 13.0507 17.416 11.6731 11.5889 11.509 11.2621 11.2291 10.9879 10.7519 14.3454
threshold=1.0745000000000002 0.64350000000000007 0.8045000000000001 0.9105000000000002 1.7615000000000001 0.84050000000000014 1.0105000000000002 1.0425000000000002 0.88150000000000006 0.81050000000000011 1.0195000000000001 1.0525000000000002 1.0305000000000002 0.90350000000000008 1.3035000000000003 0.83950000000000002 0.86750000000000005 0.77550000000000019 0.95850000000000002 1.2425000000000004 0.94750000000000012 0.89150000000000007 1.1825000000000003 1.5715000000000001 0.87650000000000017 1.1075000000000002 0.90350000000000008 0.9255000000000001 0.74650000000000005 0.88950000000000007
decision_type=2 2 2 2 2 2 2 2 2 2 2 2 2 2 2 2 2 2 2 2 2 2 2 2 2 2 2 2 2 2
left_child=1 7 5 8 6 27 10 14 9 24 13 12 22 -2 18 -9 -16 -15 19 20 -1 -22 -5 -14 -4 -12 -10 28 -3 -30
right_child=4 2 3 11 -6 -7 -8 15 26 -11 25 -13 23 17 16 -17 -18 -19 -20 -21 21 -23 -24 -25 -26 -27 -28 -29 29 -31
leaf_value=-0.075971989835933479 -0.083122943869334068 -0.06676485377527501 0.11316915467769062 -0.042744019172165158 -0.1126894204348684 0.046070882554146146 -0.0067836041743055339 0.060866790794863582 0.099431582603105612 -0.026367199957749349 -0.16502412923741316 0.052226929946575379 0.055281327882745014 0.075025939732343491 -0.078643800566823671 -0.024914803275575489 0.082953033195529977 -0.028576154617001904 -0.10257850536956792 0.047249306051556757 0.015820000747067044 -0.071550097027302847 -0.13794476324703656 -0.019128340654702047 0.045394275643883701 -0.084608053389069182 0.14155682197119462 -0.12315921959665449 -0.029650299331387953 0.12606425940317942
leaf_weight=108.93757736682892 80.395542651414871 57.927295178174973 78.188971072435379 33.982885718345642 123.99985957145691 50.974140018224716 136.70413607358932 45.682680353522301 124.17165493965149 35.364972621202469 31.994764491915703 141.89376598596573 74.108673304319382 16.68269419670105 8.4810562431812304 41.905455932021141 18.677388697862625 67.008725315332413 48.441857799887657 13.653210178017614 49.100804135203362 42.618021920323372 20.740464299917221 29.168888866901398 36.870304614305496 38.218767106533051 129.03730867803097 19.226976752281189 28.209694385528564 7.4864648580551139
leaf_count=437 322 232 317 136 496 205 549 184 503 143 128 572 299 67 34 168 75 269 194 55 197 171 83 117 149 153 525 77 113 30
internal_value=0 0.0247458 0.0496439 0.0665765 -0.0621414 -0.0230717 -0.0452469 -0.0324608 0.0996016 0.0637517 -0.0676885 0.0221276 -0.00490333 -0.0447685 -0.0482577 0.0198257 0.0324895 -0.00792455 -0.0566038 -0.0462119 -0.0525712 -0.0247773 -0.0788256 0.0342657 0.091451 -0.121252 0.120899 -0.0543032 -0.0401626 0.00300732
internal_weight=0 1244.85 867.352 703.528 495.004 163.825 371.005 377.498 403.633 150.424 234.3 299.895 158.001 164.087 289.91 87.5881 27.1584 83.6914 262.751 214.31 200.656 91.7188 54.7234 103.278 115.059 70.2135 253.209 112.85 93.6235 35.6962
internal_count=7000 5016 3501 2844 1984 657 1488 1515 1637 609 939 1207 635 658 1163 352 109 336 1054 860 805 368 219 416 466 281 1028 452 375 143
is_linear=0
shrinkage=0.1


Tree=2
num_leaves=31
num_cat=0
split_feature=25 26 27 5 22 24 5 3 25 25 27 21 24 27 5 0 25 25 26 14 27 9 0 24 9 26 25 25 22 7
split_gain=221.034 127.575 125.876 42.1847 38.5827 55.2399 30.7899 27.4885 25.7183 31.9743 25.691 21.2399 20.4383 27.1883 12.7177 13.413 12.7875 12.4918 12.4719 12.6732 12.4248 11.8704 11.1534 10.7089 10.6492 10.2454 10.054 13.9537 9.85714 9.66465
threshold=1.2175000000000002 0.8045000000000001 0.9105000000000002 0.90350000000000008 1.0525000000000002 1.0305000000000002 0.77950000000000019 1.8845000000000003 0.98650000000000004 0.71550000000000014 0.83950000000000002 1.0775000000000003 0.96750000000000014 0.9105000000000002 1.1265000000000003 1.9360000000000002 0.64350000000000007 1.4185000000000001 0.94850000000000001 1.0000000180025095e-35 0.83950000000000002 0.75550000000000017 1.3550000000000002 0.62350000000000005 1.7005000000000001 0.84550000000000003 1.0745000000000002 0.71550000000000014 0.97750000000000015 1.3030000000000002
decision_type=2 2 2 2 2 2 2 2 2 2 2 2 2 2 2 2 2 2 2 2 2 2 2 2 2 2 2 2 2 2
left_child=1 6 3 8 5 22 23 12 9 20 21 25 13 -2 16 -16 -7 29 19 -10 -3 -8 -4 -1 -6 -11 27 -5 -22 -14
right_child=7 2 4 26 24 14 10 -9 18 11 -12 -13 17 -15 15 -17 -18 -19 -20 -21 28 -23 -24 -25 -26 -27 -28 -29 -30 -31
leaf_value=-0.0042807240573626273 -0.0398727443747946 0.033893020600031035 -0.068591941704728709 0.064105647975544772 0.022466179603623276 -0.075556526942377175 -0.010900128903317674 -0.16074737219598886 0.01422058593743631 0.043857259534335849 -0.089239130007882111 -0.018221507110561825 -0.015215857588491319 -0.12291195642398307 0.072334783713426304 -0.06113222761832024 0.0060984714022580717 -0.055513832458047488 0.051377435758590523 -0.10098600907317914 -0.10283239345764057 0.051329555920229114 -0.14670847712482069 -0.063822859846195165 0.092793026267512513 0.11010921781060663 0.033913013307296756 0.12361414503449067 0.027870970479387178 0.10479873484310753
leaf_weight=35.930178880691528 70.367102578282356 56.917046368122101 61.180818304419518 52.389608532190323 177.93314634263515 24.726793214678764 56.427360773086548 29.646758526563644 17.894058138132095 28.971629589796066 24.475561246275902 17.840399220585823 50.87774470448494 89.679119944572449 41.682930186390877 9.1897538900375348 85.477153435349464 122.62818229198456 19.253783956170082 20.472973376512527 14.728670239448549 67.1072798371315 26.064512386918068 189.61243006587029 24.495611116290092 120.11638695001602 19.55335097014904 158.96077759563923 9.4863401204347593 7.7292973250150672
leaf_count=144 282 230 245 213 719 99 227 119 72 118 98 72 204 360 168 37 345 492 78 82 59 271 105 759 99 495 79 660 38 31
internal_value=0 0.0186968 0.0375297 0.0702553 -0.00142773 -0.0278431 -0.0310801 -0.0683844 0.0458862 0.0598659 0.00436013 0.0848954 -0.0603609 -0.0864023 0.00686844 0.048225 -0.0122227 -0.0373641 -0.0142971 -0.0472546 0.00836784 0.0229047 -0.0919292 -0.0543375 0.0309763 0.0972348 0.102516 0.108863 -0.0516288 0.000612078
internal_weight=0 1360.89 987.336 536.585 450.751 248.322 373.553 370.928 305.681 248.06 148.01 166.928 341.281 160.046 161.077 50.8727 110.204 181.235 57.6208 38.367 81.1321 123.535 87.2453 225.543 202.429 149.088 230.904 211.35 24.215 58.607
internal_count=7000 5512 4013 2196 1817 999 1499 1488 1244 1012 596 685 1369 642 649 205 444 727 232 154 327 498 350 903 818 613 952 873 97 235
is_linear=0
shrinkage=0.1


Tree=3
num_leaves=31
num_cat=0
split_feature=25 26 27 5 22 24 5 3 27 25 25 22 21 27 24 9 8 2 24 25 5 0 25 5 26 14 27 24 0 0
split_gain=180.02 104.318 104.329 35.7429 31.3793 45.126 25.0187 22.7995 22.3626 21.1922 26.7162 19.6808 17.765 15.711 17.7565 11.7325 11.1845 12.0851 10.7083 10.5818 10.3532 10.9259 10.371 10.2181 10.1443 10.3091 10.0848 10.0769 9.50719 9.35388
threshold=1.2175000000000002 0.8045000000000001 0.9105000000000002 0.90350000000000008 1.0525000000000002 1.0305000000000002 0.71450000000000002 1.8845000000000003 0.75650000000000006 0.98650000000000004 0.71550000000000014 1.0105000000000002 1.0775000000000003 0.95850000000000002 1.1075000000000002 0.95550000000000013 1.6300000000000001 0.66850000000000021 1.3475000000000004 0.64350000000000007 1.1265000000000003 1.9360000000000002 0.64350000000000007 1.4045000000000003 0.94850000000000001 1.0000000180025095e-35 0.83950000000000002 0.79350000000000021 1.3550000000000002 1.5835000000000001
decision_type=2 2 2 2 2 2 2 2 2 2 2 2 2 2 2 2 2 2 2 2 2 2 2 2 2 2 2 2 2 2
left_child=1 6 3 9 5 28 29 11 15 10 26 13 -12 23 -15 -8 17 18 -13 -6 22 -22 -7 -2 25 -11 -3 -21 -4 -1
right_child=7 2 4 -5 19 20 8 -9 -10 24 12 16 -14 14 -16 -17 -18 -19 -20 27 21 -23 -24 -25 -26 -27 -28 -29 -30 -31
leaf_value=-0.059402284518187277 -0.056125002303963015 0.030614207298221577 -0.061863654484011356 0.094326941414700841 -0.0206297135241818 -0.06808147777955266 0.0025740574663490855 -0.14640079280011911 -0.053588244684882408 0.012812268410099548 0.089250406463706536 -0.050597799628750321 -0.016372323758906227 -0.13994880340391372 -0.0546553481178918 0.069963683953894892 -0.051339056695249435 0.075767785262527046 0.060588789842905055 0.10280013889802285 0.065534021369145504 -0.054858747696143656 0.0054915952051566436 0.061733476728735193 0.046535064592388452 -0.09120409783879968 -0.046488059212213162 0.029236744161700558 -0.13444456607003885 0.020454721710302406
leaf_weight=178.41942198574543 94.695683300495148 56.722129628062248 61.056902334094048 226.13808462023735 36.650691524147987 24.698440656065941 86.010057598352432 29.311782583594322 55.648313075304031 17.875859588384628 146.33951762318611 33.371364399790764 17.868273615837097 55.986051753163338 43.272704884409904 36.926327988505363 75.629277840256691 17.704617008566856 11.698433309793471 21.392664700746536 41.4211805164814 9.2150331884622556 85.433371275663376 7.975667566061019 19.137756377458572 20.404708862304688 24.202480956912041 143.72256399691105 25.619730338454247 15.981669902801512
leaf_count=715 380 230 245 952 147 99 346 119 224 72 613 134 72 227 174 150 304 71 47 87 168 37 345 32 78 82 97 584 105 64
internal_value=0 0.0169818 0.0341439 0.0642518 -0.00129104 -0.0251572 -0.028014 -0.0617753 -0.000992239 0.0417725 0.0545815 -0.0544868 0.0777571 -0.0743955 -0.102764 0.0228158 -0.0254402 0.00576216 -0.0217379 0.0279782 0.00619918 0.0436243 -0.0110081 -0.0469696 -0.012912 -0.0426316 0.00755489 0.0387678 -0.083317 -0.0528373
internal_weight=0 1350.89 977.899 528.689 449.211 247.445 372.986 369.646 178.585 302.551 245.132 340.334 164.208 201.93 99.2588 122.936 138.404 62.7744 45.0698 201.766 160.768 50.6362 110.132 102.671 57.4183 38.2806 80.9246 165.115 86.6766 194.401
internal_count=7000 5512 4013 2196 1817 999 1499 1488 720 1244 1012 1369 685 813 401 496 556 252 181 818 649 205 444 412 232 154 327 671 350 779
is_linear=0
shrinkage=0.1


Tree=4
num_leaves=31
num_cat=0
split_feature=25 25 26 27 25 26 27 5 22 9 13 27 5 3 5 0 21 25 24 22 15 21 27 2 24 27 15 14 25 25
split_gain=151.461 110.451 59.646 58.5156 27.1231 24.5708 30.1193 22.3908 22.3414 20.6814 18.8694 18.8037 16.9522 16.8822 18.5062 14.1601 12.5342 11.92 11.7986 11.5614 11.5379 11.4333 9.49537 9.42425 12.3745 13.6028 9.41733 9.15839 8.99102 8.96455
threshold=1.0745000000000002 0.64350000000000007 0.8045000000000001 0.9105000000000002 1.7615000000000001 0.88150000000000006 0.83950000000000002 0.84050000000000014 1.0525000000000002 1.1375000000000002 1.3035000000000003 1.0195000000000001 0.90350000000000008 1.8845000000000003 1.2425000000000004 1.5835000000000001 0.58550000000000002 0.98650000000000004 1.2105000000000004 0.77550000000000019 -0.97449999999999981 0.94950000000000012 0.83950000000000002 0.66850000000000021 1.3475000000000004 0.9105000000000002 0.7360000000000001 -0.45749999999999996 0.9255000000000001 0.77650000000000008
decision_type=2 2 2 2 2 2 2 2 2 2 2 2 2 2 2 2 2 2 2 2 2 2 2 2 2 2 2 2 2 2
left_child=1 9 7 5 8 6 -4 28 11 10 19 12 -2 14 17 -16 -14 -5 21 -1 -12 -18 -11 24 25 -10 -21 -17 -3 -7
right_child=4 2 3 13 -6 29 -8 -9 23 22 20 -13 16 -15 15 27 18 -19 -20 26 -22 -23 -24 -25 -26 -27 -28 -29 -30 -31
leaf_value=-0.0059981014686445793 -0.063333988903515659 -0.027286781032654358 0.062512212098065317 0.024515812852043923 -0.087852091333335339 0.058284336226401383 -0.076366455587105406 0.040052556744798934 0.027501998821836682 0.062341418315565944 -0.062740795937522104 -0.091007133729418183 0.092468070468113478 -0.04197190903647844 0.098372013629221378 -0.11565817783914022 -0.065924749205957478 -0.03840728874788582 0.053508800981663718 -0.068739043002014943 0.07448123727733226 0.025687622425887621 -0.013036769032981106 0.047782968245481144 0.06214511988456254 -0.072832860068839364 -0.022302035023417786 0.043464853166163608 -0.10257257638650584 0.10722173948857161
leaf_weight=58.848481833934784 88.485692247748375 93.403134942054749 126.9755093306303 150.09972780942917 121.55727459490299 46.513892769813538 17.805997490882874 50.543877318501472 21.105492189526558 33.081728741526604 8.4257262051105517 76.459761753678322 12.14325702190399 39.692241355776787 51.829706773161888 5.3396456092596081 43.227309510111809 37.659845888614655 18.63235867023468 158.34656678140163 22.463592290878296 19.891201943159103 33.772159367799759 34.492199376225471 16.138508051633835 37.556829035282135 60.303110390901566 11.211895152926443 19.108087420463562 191.7197278290987
leaf_count=237 357 375 536 612 496 198 73 205 85 136 34 313 49 161 213 22 174 153 75 638 91 80 136 139 65 151 243 46 77 830
internal_value=0 0.0189632 0.0390744 0.0521193 -0.0468958 0.077922 0.0454322 -0.0152355 -0.033372 -0.0261589 -0.0370896 -0.0493799 -0.0319283 0.0187125 0.0281164 0.0726565 -0.0023317 0.011895 -0.0164132 -0.0453425 0.037051 -0.037054 0.0242631 0.00453955 -0.0154009 -0.0367344 -0.0559318 -0.00786938 -0.0400728 0.097667
internal_weight=0 1217.14 841.903 678.848 489.69 383.015 144.782 163.055 368.133 375.241 308.387 258.84 182.38 295.833 256.141 68.3812 93.8941 187.76 81.7509 277.498 30.8893 63.1185 66.8539 109.293 74.8008 58.6623 218.65 16.5515 112.511 238.234
internal_count=7000 5016 3501 2844 1984 1637 609 657 1488 1515 1243 1048 735 1207 1046 281 378 765 329 1118 125 254 272 440 301 236 881 68 452 1028
is_linear=0
shrinkage=0.1


Tree=5
num_leaves=31
num_cat=0
split_feature=25 25 26 27 25 5 5 9 26 3 5 27 13 9 24 3 27 26 5 27 24 22 26 21 3 11 26 13 20 22
split_gain=126.557 111.095 46.4856 42.6654 29.3691 19.1841 17.8549 17.1972 17.1229 16.6743 16.5691 14.0705 18.0811 13.9314 13.7717 12.5608 10.8427 11.808 10.3986 10.375 17.0086 13.7648 10.1918 9.92748 14.8361 9.75885 9.55973 9.54764 13.3951 9.48141
threshold=0.98650000000000004 0.64350000000000007 0.8045000000000001 1.0195000000000001 1.4185000000000001 0.84050000000000014 0.84050000000000014 1.4225000000000001 0.98950000000000016 1.5715000000000001 0.90350000000000008 0.9105000000000002 0.9085000000000002 1.0425000000000002 0.96750000000000014 1.8845000000000003 0.83950000000000002 0.91350000000000009 1.2425000000000004 0.9105000000000002 1.2105000000000004 1.0105000000000002 0.94850000000000001 0.86750000000000005 0.61550000000000005 0.74400000000000011 0.84550000000000003 0.75950000000000017 1.0000000180025095e-35 1.0525000000000002
decision_type=2 2 2 2 2 2 2 2 2 2 2 2 2 2 2 2 2 2 2 2 2 2 2 2 2 2 2 2 2 2
left_child=1 7 6 10 5 13 27 11 -6 -5 16 12 18 29 -10 -16 26 -18 -1 22 21 -21 -7 24 -14 -24 -4 -3 -29 -2
right_child=4 2 3 9 8 19 -8 -9 14 -11 -12 -13 23 -15 15 -17 17 -19 -20 20 -22 -23 25 -25 -26 -27 -28 28 -30 -31
leaf_value=-0.040998394180164925 -0.082324770407763759 0.0022184826108066643 0.029910230321351275 0.031372420071245549 0.006455383424489175 -0.0042274939504097046 0.046068980116925562 0.048891199551674563 -0.10512957765331366 -0.043546523100063177 0.095352690352059677 -0.064608085024434894 0.082996258432970579 0.0022143065192343253 -0.042496146496309922 -0.14718821156920078 -0.030001709427922282 0.050499374002187236 0.069056796079074972 -0.10149325112325791 0.018231993620616213 -0.0098335830863685251 0.098724385042821661 0.050158910773388514 -0.072413415501968462 -0.0078111694971907042 0.089807304209637853 -0.092795188594622449 0.015966511150458784 -0.0094951163140615125
leaf_weight=171.08474588394165 81.101152077317238 48.977626636624336 36.731422454118729 111.03057633340359 30.539677038788795 47.61112268269062 44.937299475073814 30.102001219987869 83.843140468001366 40.559601634740829 187.2239648848772 87.320873916149139 8.9109139740467089 41.570541277527809 114.76780416071415 12.731394276022909 24.917326241731644 67.800508424639702 9.0388060063123685 31.369758248329163 66.110813856124878 34.295363932847977 26.77277971804142 48.217657446861267 19.774197772145271 12.665995270013807 97.047610357403755 36.496430516242981 16.417915001511574 22.929235816001892
leaf_count=690 330 197 154 457 123 196 183 123 347 165 824 353 36 169 468 54 103 285 37 129 268 139 112 196 80 53 423 147 66 93
internal_value=0 0.020505 0.0436912 0.056712 -0.0365218 -0.0185912 -0.00644071 -0.0235912 -0.0635366 0.011327 0.0733414 -0.0299275 -0.0181453 -0.0467188 -0.0736506 -0.0529501 0.0551467 0.0288652 -0.0354757 0.000124213 -0.0175733 -0.0536215 0.0269146 0.0224465 -0.024136 0.0645099 0.0733615 -0.029599 -0.0590493 -0.0662725
internal_weight=0 1086.59 712.14 565.311 606.309 364.427 146.829 374.449 241.882 151.59 413.721 344.347 257.026 145.601 211.342 127.499 226.497 92.7178 180.124 218.826 131.776 65.6651 87.0499 76.9028 28.6851 39.4388 133.779 101.892 52.9143 104.03
internal_count=7000 4519 3004 2411 2481 1489 593 1515 992 622 1789 1392 1039 592 869 522 965 388 727 897 536 268 361 312 116 165 577 410 213 423
is_linear=0
shrinkage=0.1


Tree=6
num_leaves=31
num_cat=0
split_feature=25 25 26 27 25 22 27 5 5 9 5 3 13 9 22 6 16 22 21 26 22 22 24 24 13 22 27 21 24 7
split_gain=103.556 91.3198 38.6343 36.1113 24.7841 19.0095 16.0861 18.9832 14.8923 14.5874 14.4396 14.3049 14.192 12.8265 14.0357 11.4691 11.3211 10.2689 10.2208 9.77221 9.52673 9.66389 10.7545 9.38678 12.7127 9.3091 13.6912 12.7894 12.4811 9.37827
threshold=0.98650000000000004 0.64350000000000007 0.8045000000000001 1.0195000000000001 1.7615000000000001 1.0525000000000002 1.0195000000000001 0.96750000000000014 0.77950000000000019 1.1375000000000002 0.90350000000000008 1.2195000000000003 1.3035000000000003 1.2635000000000003 1.4490000000000003 -0.55649999999999988 1.9110000000000003 0.97750000000000015 0.86750000000000005 0.74650000000000005 0.77550000000000019 1.1115000000000002 0.74850000000000005 0.79350000000000021 0.82850000000000013 1.0525000000000002 0.83950000000000002 1.2570000000000003 0.9195000000000001 -0.28649999999999992
decision_type=2 2 2 2 2 2 2 2 2 2 2 2 2 2 2 2 2 2 2 2 2 2 2 2 2 2 2 2 2 2
left_child=1 9 8 10 5 6 7 -2 17 12 25 -5 20 23 -15 -10 -16 19 -14 -3 -1 -22 -23 24 -7 26 -4 -27 29 -28
right_child=4 2 3 11 -6 13 -8 -9 15 -11 -12 -13 18 14 16 -17 -18 -19 -20 -21 21 22 -24 -25 -26 27 28 -29 -30 -31
leaf_value=-0.0019197930659408014 -0.045185697247964125 -0.079803481693264566 0.061057299679535361 0.036969373254597197 -0.074193850848266948 -0.069558288884821157 -0.071496655481885982 0.011602243218459603 -0.034996012432983434 0.021235287247891109 0.088393264960455298 -0.025149172794867492 -0.051104744176991894 0.096281098145006586 -0.081379966165118806 0.061691223053398338 0.084133474640072772 0.024045124401915422 0.073253356006232936 0.0042462424939573263 -0.055469755081649322 0.078134456876515462 -0.04593101074340894 -0.028722725358345337 0.097087381012106594 0.11812957006332044 0.025415195551612858 -0.003063307226306977 0.030971098623013629 -0.12177961060218845
leaf_weight=58.813977956771851 148.47497043013573 43.310487478971481 110.65684552490711 86.110078439116478 118.09178513288498 6.6106071323156383 92.981312066316605 97.533958807587624 17.429244980216026 66.338998720049858 182.04234777390957 65.096666216850281 9.6457899808883685 27.404012322425842 10.845696434378626 41.433768957853317 6.6765969544649115 23.79365211725235 20.992155000567436 20.32472288608551 189.09686779975891 12.173299357295038 16.399821490049362 78.673777237534523 14.886093407869337 36.717207789421082 6.9375805258750942 11.414562195539473 45.891577526926994 11.509550154209135
leaf_count=237 606 175 488 356 496 27 388 401 71 272 824 266 39 112 44 169 27 96 86 82 766 49 66 319 61 160 29 47 193 48
internal_value=0 0.0186688 0.039906 0.0519297 -0.033119 -0.0230989 -0.0360635 -0.0226713 -0.00582231 -0.0212891 0.0674931 0.0102265 -0.0304745 0.00719034 0.0515865 0.0330623 -0.0183136 -0.032002 0.0341015 -0.0529585 -0.0376303 -0.0472792 0.00692587 -0.0127213 0.045841 0.0504413 0.0397291 0.0893884 0.00304644 -0.0664227
internal_weight=0 1076.13 702.668 556.376 602.179 484.087 338.99 246.009 146.292 373.461 405.17 151.207 307.122 145.097 44.9263 58.863 17.5223 87.4289 30.6379 63.6352 276.484 217.67 28.5731 100.17 21.4967 223.127 174.996 48.1318 64.3387 18.4471
internal_count=7000 4519 3004 2411 2481 1985 1395 1007 593 1515 1789 622 1243 590 183 240 71 353 125 257 1118 881 115 407 88 965 758 207 270 77
is_linear=0
shrinkage=0.1


Tree=7
num_leaves=31
num_cat=0
split_feature=25 25 5 27 26 0 3 25 27 25 24 27 26 21 21 6 3 5 8 22 26 25 27 9 23 4 27 24 0 24
split_gain=86.8812 52.5446 40.015 37.1463 22.4833 21.2843 17.4333 16.1668 16.684 15.162 14.3669 21.1621 14.024 14.0024 15.2193 12.0724 11.967 17.1379 12.0757 11.6413 10.4434 15.8862 11.9106 10.4034 9.80354 9.42302 9.40296 10.6065 9.14764 9.11319
threshold=1.2175000000000002 0.5465000000000001 0.77950000000000019 0.9105000000000002 0.74650000000000005 1.5835000000000001 1.8845000000000003 0.98650000000000004 0.87150000000000005 0.98650000000000004 1.2105000000000004 0.9105000000000002 0.88150000000000006 1.0775000000000003 0.58550000000000002 1.0585000000000002 1.8845000000000003 1.4045000000000003 1.6300000000000001 1.0525000000000002 0.88150000000000006 0.77650000000000008 0.81050000000000011 1.2635000000000003 0.98350000000000015 0.49250000000000005 1.2235000000000003 1.1075000000000002 1.0485000000000002 0.69450000000000001
decision_type=2 2 2 2 2 2 2 2 2 2 2 2 2 2 2 2 2 2 2 2 2 2 2 2 2 2 2 2 2 2
left_child=1 -1 4 9 -3 16 10 8 12 20 11 13 -6 14 -2 26 17 18 -5 -13 22 -22 -4 -10 -11 -15 27 -7 -16 -9
right_child=6 2 3 5 7 15 -8 29 23 24 -12 19 -14 25 28 -17 -18 -19 -20 -21 21 -23 -24 -25 -26 -27 -28 -29 -30 -31
leaf_value=-0.029335159957016826 0.071845211829805605 -0.046908836096446943 0.064735957527746996 -0.0079587192862458321 0.0190165358592711 -0.086903783644719373 -0.12070354816068403 0.07722632248707989 -0.023502594679580588 0.10945962898215551 -0.0046059482153298385 -0.098116015052037098 0.080205764197579868 0.13254918712344274 -0.032172831936211038 0.073906450189246672 -0.026630269912593429 0.090387316954205821 0.049969330204059893 -0.037336574980192501 0.034942292245157242 0.11195898032044507 -0.01032696742864888 0.069621094910881226 0.0030465510705514082 -0.037014252048310416 -0.12543218412380389 0.025162292068594008 -0.12625739807374667 -0.042281542148683571
leaf_weight=248.34894439578056 12.284478828310965 88.206520423293114 120.61091376841068 78.837527230381966 102.07405807077885 17.218840077519417 27.082158520817757 7.0409556180238715 86.060189619660378 10.095868870615957 95.767037078738213 86.904961630702019 59.167885825037956 9.6649951636791211 59.074044808745384 7.5673442333936682 37.974033996462822 42.966496184468269 66.206999316811562 49.440507039427757 37.240389212965965 95.371181607246399 25.631209641695023 13.939578890800474 60.76697513461113 4.9589321762323371 15.779993981122969 16.575317442417145 12.525169253349302 68.05917039513588
leaf_count=1010 50 359 519 325 431 72 119 29 356 43 393 372 268 39 240 31 154 180 273 204 166 463 108 58 256 20 65 68 51 278
internal_value=0 0.0120574 0.0217792 0.0377127 -0.00197154 0.0107863 -0.0435686 0.00981338 0.0215683 0.059512 -0.0372502 -0.0505617 0.04147 -0.0152461 -0.0309881 -0.0437397 0.0245735 0.0349155 0.0184831 -0.0760767 0.0700084 0.0903309 0.05158 -0.0105215 0.0182073 0.0750507 -0.0616981 -0.0319378 -0.0486315 -0.0310772
internal_weight=0 1305.74 1057.39 632.843 424.548 283.127 357.702 336.342 261.242 349.717 330.62 234.853 161.242 98.5076 83.8837 57.1415 225.985 188.011 145.045 136.345 278.854 132.612 146.242 99.9998 70.8628 14.6239 49.5742 33.7942 71.5992 75.1001
internal_count=7000 5512 4502 2723 1779 1168 1488 1420 1113 1555 1369 976 699 400 341 236 932 778 598 576 1256 629 627 414 299 59 205 140 291 307
is_linear=0
shrinkage=0.1


Tree=8
num_leaves=31
num_cat=0
split_feature=25 26 27 5 24 22 24 3 9 13 22 22 19 5 4 3 0 5 27 9 24 3 1 17 27 26 13 24 22 13
split_gain=71.3382 44.9194 50.3949 20.4406 19.9211 29.5963 16.1717 15.1145 13.6721 12.3887 12.3242 13.7231 11.9692 13.8432 10.4459 10.404 10.4036 10.1056 10.0596 12.2984 10.6807 9.62942 10.7818 9.48466 8.91068 13.4229 9.46934 8.57424 8.56527 8.41378
threshold=1.2175000000000002 0.8045000000000001 0.9105000000000002 0.90350000000000008 1.0305000000000002 1.0525000000000002 0.74850000000000005 1.8845000000000003 1.2635000000000003 1.4675000000000002 1.0105000000000002 0.77550000000000019 0.72600000000000009 1.4045000000000003 1.2515000000000003 0.79250000000000009 1.0485000000000002 0.90350000000000008 0.87150000000000005 0.81450000000000011 1.1075000000000002 1.5715000000000001 1.4875000000000003 0.7965000000000001 0.83950000000000002 0.91350000000000009 1.1795000000000002 0.9195000000000001 0.97750000000000015 0.75950000000000017
decision_type=2 2 2 2 2 2 2 2 2 2 2 2 2 2 2 2 2 2 2 2 2 2 2 2 2 2 2 2 2 2
left_child=1 6 3 8 5 -4 12 10 24 -8 11 -2 13 15 -7 17 18 23 19 -13 -20 -6 -23 -1 -3 28 27 -27 -26 -21
right_child=7 2 4 -5 21 14 9 -9 -10 -11 -12 16 -14 -15 -16 -17 -18 -19 20 29 -22 22 -24 -25 25 26 -28 -29 -30 -31
leaf_value=-0.027303062724093094 0.01922576437604602 0.032718030615205694 -0.070659315792903091 0.069206756618453505 0.026599831659772394 0.026858120277793884 -0.045860963755190942 -0.11291896961043393 0.09626313097500655 0.07968181522617114 -0.010721192479281673 -0.092749362110277497 -0.036363037896215929 0.15210106583229435 -0.074732925310861592 -0.024919556475672094 -0.09715492052702053 0.10379612751891654 -0.098017239852130622 -0.050436555577786125 -0.021036427552346582 -0.0020469458024740673 -0.12225765688285889 0.053836728668230395 -0.11168921751207431 -0.074117430695247441 0.095632589056773798 0.030959287516346731 -0.00087635787798474645 0.06515095659831481
leaf_weight=27.8369430154562 24.859896078705788 181.93831314146519 84.417043387889862 201.87117330729961 196.54017280042171 73.517828792333603 171.18618531525135 26.10528701543808 26.342847123742104 8.2386458963155729 135.24885857105255 11.267453148961065 56.970420390367508 7.3274568468332282 11.73718813061714 49.381764739751816 52.751857683062553 16.329407498240471 42.732798144221306 9.0566465556621569 31.169935643672943 65.671777814626694 8.417509049177168 29.8593809902668 15.769052192568781 11.497232407331465 13.367778286337851 23.927260458469391 12.508068665862082 20.6711535602808
leaf_count=113 104 799 350 952 814 305 699 119 117 34 556 46 233 31 48 201 226 67 187 37 129 266 34 121 65 49 58 104 52 84
internal_value=0 0.0109771 0.0226961 0.0448547 -0.00182386 -0.0286874 -0.0186297 -0.0396884 0.0276268 -0.0400964 -0.0338558 -0.0501091 0.00188994 0.0185595 0.0128719 0.0106303 -0.0603904 0.0343452 -0.0435112 -0.00378311 -0.0655491 0.0150183 -0.0157045 0.0146889 0.0206461 -0.00785232 0.0239181 -0.00314399 -0.0626724 0.0299369
internal_weight=0 1294.65 927.523 487.222 440.302 169.672 367.13 353.864 285.351 179.425 327.759 192.51 187.705 130.735 85.255 123.407 167.65 74.0257 114.898 40.9953 73.9027 270.629 74.0893 57.6963 259.008 77.0694 48.7923 35.4245 28.2771 29.7278
internal_count=7000 5512 4013 2196 1817 703 1499 1488 1244 733 1369 813 766 533 353 502 709 301 483 167 316 1114 300 234 1127 328 211 153 117 121
is_linear=0
shrinkage=0.1


Tree=9
num_leaves=31
num_cat=0
split_feature=25 25 26 27 25 24 27 26 22 25 5 21 5 24 22 2 27 13 3 9 3 16 21 5 20 15 26 21 19 0
split_gain=63.2257 60.0893 24.7278 23.8636 16.1649 14.264 23.6047 14.1058 12.8276 12.2935 12.038 11.4913 11.3299 11.2059 10.9762 10.8839 10.7661 12.1789 13.0678 10.7472 10.0675 9.25859 9.17741 9.00328 8.94933 10.209 8.60247 9.27756 9.22755 10.4447
threshold=0.98650000000000004 0.64350000000000007 0.8045000000000001 1.0195000000000001 1.7615000000000001 1.2105000000000004 0.9105000000000002 0.88150000000000006 1.0525000000000002 0.71550000000000014 1.7145000000000004 1.2570000000000003 0.77950000000000019 0.74850000000000005 1.0525000000000002 0.88050000000000017 0.9105000000000002 1.3035000000000003 0.41250000000000003 0.75550000000000017 1.2195000000000003 1.0000000180025095e-35 1.7360000000000004 0.84050000000000014 1.0000000180025095e-35 -0.48149999999999993 0.74650000000000005 0.86750000000000005 0.72600000000000009 0.56250000000000011
decision_type=2 2 2 2 2 2 2 2 2 2 2 2 2 2 2 2 2 2 2 2 2 2 2 2 2 2 2 2 2 2
left_child=1 10 23 8 5 6 7 -2 9 -4 16 -10 -11 -9 -8 -16 17 18 -1 -7 -5 -18 -13 -3 -25 -26 27 -20 29 -29
right_child=4 2 3 20 -6 19 14 13 11 12 -12 22 -14 -15 15 -17 21 -19 26 -21 -22 -23 -24 24 25 -27 -28 28 -30 -31
leaf_value=0.037044203669508245 -0.040386159894553943 -0.020591545757902951 -0.0052347002441023374 0.031379543446816503 -0.060201391055804188 -0.036498557881093574 -0.082016547495198266 0.082113140432652179 0.10837343156276853 0.028925453378087492 0.059632889396040736 -0.055148077711959821 0.071929477219112872 0.0010130006444949615 -0.049947577891716895 0.051595387510452576 -0.022620474511896794 0.057384156243578122 -0.079098883060558678 0.027704052655993152 -0.020995742673857395 -0.086529261916419686 0.081251031210815422 0.074120973612565116 0.080752262089977295 -0.070433434975126455 -0.0049338378546005856 -0.083960776522250868 -0.08080848452526615 0.031257224965870918
leaf_weight=36.255691587924957 75.885670512914658 100.56367622315884 40.781096503138542 84.710567727684975 112.59142944216728 35.957985535264015 86.643501609563828 20.393573254346848 69.114358574151993 105.28525538742542 19.162399038672447 8.6655551046133041 146.52653922140598 103.52531464397907 44.663055688142776 13.82240207493305 50.668784484267235 23.451452136039734 49.295999318361282 94.842684030532837 64.754421383142471 41.020676046609879 11.451661422848701 24.35937725007534 6.9240840375423458 12.583664953708647 88.340953290462494 10.302726477384565 18.163399383425713 33.290524378418922
leaf_count=148 313 410 179 356 496 148 379 86 330 476 80 37 717 431 182 56 207 98 201 390 266 169 50 102 29 52 361 42 74 135
internal_value=0 0.0148507 0.0325881 0.0425622 -0.0261287 -0.0180647 -0.0287276 -0.00643268 0.0558221 0.0457001 -0.0175467 0.0890126 0.053949 0.0143598 -0.0594219 -0.025949 -0.0217628 -0.0113412 -0.0181807 0.0100543 0.0086884 -0.0512124 0.0224967 -0.00410159 0.033701 -0.0167716 -0.0282222 -0.0467478 -0.0209243 0.00402687
internal_weight=0 1045.67 675.72 531.289 588.326 475.734 344.934 199.805 381.824 292.593 369.953 89.2316 251.812 123.919 145.129 58.4855 350.79 259.101 235.649 130.801 149.465 91.6895 20.1172 144.431 43.8671 19.5077 199.394 111.053 61.7567 43.5933
internal_count=7000 4519 3004 2411 2481 1985 1447 830 1789 1372 1515 417 1193 517 617 238 1435 1059 961 538 622 376 87 593 183 81 813 452 251 177
is_linear=0
shrinkage=0.1


Tree=10
num_leaves=31
num_cat=0
split_feature=25 25 26 27 25 22 22 13 26 27 0 5 21 3 22 24 24 9 22 9 27 13 3 10 16 27 21 26 17 24
split_gain=51.8002 49.4497 20.5516 22.0834 13.5403 11.9923 12.3969 13.7512 11.2237 10.8724 10.33 13.2189 14.3482 12.3852 12.1004 14.6919 10.3045 10.2354 11.2865 10.2179 9.41071 11.6296 9.17186 9.05114 8.89503 8.77141 8.97173 8.05511 7.96057 17.0514
threshold=0.98650000000000004 0.64350000000000007 0.8045000000000001 0.83950000000000002 1.7615000000000001 1.0525000000000002 0.77550000000000019 0.6925 0.88150000000000006 1.0965000000000003 1.5835000000000001 1.1265000000000003 1.0775000000000003 1.8845000000000003 1.0105000000000002 0.96750000000000014 1.5840000000000003 1.2635000000000003 1.4490000000000003 1.4225000000000001 0.9105000000000002 0.9085000000000002 1.5715000000000001 -1.458 1.9110000000000003 0.81050000000000011 0.89450000000000018 0.88150000000000006 1.4595000000000002 1.3475000000000004
decision_type=2 2 2 2 2 2 2 2 2 2 2 2 2 2 2 2 2 2 2 2 2 2 2 2 2 2 2 2 2 2
left_child=1 19 -3 8 5 6 7 -2 25 -8 11 12 14 -13 15 -5 -11 -7 -19 20 21 -1 -18 -23 -20 -4 -27 -25 -6 -30
right_child=4 2 3 10 28 17 9 -9 -10 16 -12 13 -14 -15 -16 -17 22 18 24 -21 -22 23 -24 27 -26 26 -28 -29 29 -31
leaf_value=-0.025082208349607352 -0.04521533998421548 -0.0036925001519762116 0.053002461020272264 -0.045465697031477709 -0.069776613032779974 -0.010048129288668146 -0.026145107731408931 0.059731794285023482 0.088233366413872472 -0.11059661021618675 -0.017502934911484386 0.083655034444585052 -0.028094669870102063 -0.017280193716083265 0.073924613653248261 0.041442510698203525 0.051759173313818178 0.088378062143793512 -0.071062964536772161 0.040532713308490599 -0.049513332727962392 -0.08567807416935086 -0.10120686438521304 0.020301560887885688 0.076429318810714547 -0.11565042900187972 0.044337095014191696 0.12633159735658711 -0.065402450461442371 0.10795717640298491
leaf_weight=177.87525737285614 20.758831739425659 143.83636271953583 87.953594386577606 29.923410758376122 85.437341496348381 99.398753017187119 229.00569029152393 31.326717033982277 101.66276162862778 32.52164551615715 53.529123902320862 64.771756500005722 52.756945595145226 14.965548306703566 47.625341787934303 55.583895325660706 9.2983805090188998 26.872161060571671 10.770162627100946 29.540685653686523 85.336175575852394 7.1061991453170767 6.7765601277351371 60.338823184370995 6.5913394242525092 6.7111548781394941 7.3372710794210434 8.1304090619087201 16.491280019283298 8.6494051516056043
leaf_count=727 87 593 418 131 383 407 960 133 528 148 234 296 222 63 214 242 38 112 44 123 353 29 29 249 27 30 33 34 75 38
internal_value=0 0.0135347 0.029782 0.0389913 -0.0237163 -0.0163559 -0.0268622 0.0179048 0.0647189 -0.0352617 0.0225736 0.0306498 0.0160393 0.0647109 0.0335285 0.0110289 -0.0782224 0.00775974 0.0477763 -0.0158722 -0.0207904 -0.0111195 -0.0127253 0.0217432 -0.0150671 0.0412827 -0.0320915 0.0328921 -0.0552219 -0.00575978
internal_weight=0 1034.98 666.657 522.821 583.898 473.32 329.688 52.0855 203.665 277.602 319.156 265.627 185.89 79.7373 133.133 85.5073 48.5966 143.632 44.2337 368.328 338.787 253.451 16.0749 75.5754 17.3615 102.002 14.0484 68.4692 110.578 25.1407
internal_count=7000 4519 3004 2411 2481 1985 1395 220 1009 1175 1402 1168 809 359 587 373 215 590 183 1515 1392 1039 67 312 71 481 63 283 496 113
is_linear=0
shrinkage=0.1


Tree=11
num_leaves=31
num_cat=0
split_feature=25 25 5 27 9 3 24 27 26 27 22 5 13 21 21 5 21 11 22 11 0 1 4 22 5 3 6 27 14 16
split_gain=42.4573 40.6732 18.5265 14.8822 14.4711 12.967 15.327 23.1053 10.5508 13.9251 12.67 10.3158 13.1686 12.8741 10.8857 9.10683 9.284 10.2348 8.82547 8.81077 8.24401 8.19066 7.98966 7.98833 7.89131 8.14293 7.8798 7.71889 9.46196 7.70625
threshold=0.98650000000000004 0.64350000000000007 0.77950000000000019 1.0195000000000001 1.2635000000000003 1.8845000000000003 1.2105000000000004 0.9105000000000002 0.84550000000000003 0.87150000000000005 0.97750000000000015 0.90350000000000008 0.61950000000000005 1.0775000000000003 0.58550000000000002 1.7145000000000004 0.86750000000000005 1.5105000000000002 0.77550000000000019 1.2575000000000001 1.3550000000000002 0.83450000000000013 1.2515000000000003 1.0525000000000002 0.48850000000000005 1.0955000000000001 -0.36249999999999993 0.9105000000000002 -0.45749999999999996 1.9110000000000003
decision_type=2 2 2 2 2 2 2 2 2 2 2 2 2 2 2 2 2 2 2 2 2 2 2 2 2 2 2 2 2 2
left_child=1 15 4 -4 8 6 7 11 10 24 20 12 -2 -14 -13 16 17 -1 26 -16 29 27 -5 -9 -10 -26 -18 -20 -29 -3
right_child=5 2 3 22 -6 -7 -8 23 9 -11 -12 14 13 -15 19 -17 18 -19 21 -21 -22 -23 -24 -25 25 -27 -28 28 -30 -31
leaf_value=-0.044616807982101138 -0.094084955687614422 -0.0010041695219488573 0.053811362436884516 0.019774019816530274 0.085538018758748113 -0.076239960769355297 0.009709391297009505 -0.071361662567558951 -0.016606433439174773 -0.012086134847003029 0.033779447012564079 0.1114082889607087 -0.025246671313267972 0.075988561483680703 0.020517551512573572 0.053260104116234046 0.13239821159586915 0.058902401384766913 0.015548741512767854 -0.070195839204727592 -0.11148988714778721 -0.051053130091322556 -0.066019234616297037 -0.028550745915042822 0.093865276268725581 0.0092470983964388961 0.013504646560563043 0.024645318764651616 -0.074067358626300608 -0.068753945387352466
leaf_weight=135.05807968974113 22.448589622974396 42.599670678377151 274.62232728302479 97.054070919752121 21.792696356773376 40.304718613624573 150.09490622580051 107.76237317919731 13.598945647478102 69.857989817857742 30.194962844252586 11.284709155559538 76.448885336518288 15.031854659318922 70.47306564450264 18.904698729515076 8.0385829806327838 10.277553185820578 93.905038207769394 12.625248789787291 14.098740115761755 41.539312571287155 12.221715271472929 73.187869608402252 38.058636605739594 16.218848466873169 18.184682786464691 15.70384521782398 25.442637160420418 27.709968701004982
leaf_count=556 93 178 1340 411 98 186 623 495 66 293 125 48 317 62 298 80 33 42 388 53 59 171 51 306 188 79 74 65 106 116
internal_value=0 0.0123354 0.0272124 0.0413914 0.00735591 -0.0215266 -0.017438 -0.0279058 0.000603849 0.019256 -0.021813 -0.00519893 -0.0254535 -0.00861199 0.0192503 -0.0143352 -0.0180057 -0.0372963 -0.00418205 0.00673533 -0.0416998 -0.0122206 0.0101787 -0.0540462 0.0515132 0.0685802 0.0499507 -0.000276469 -0.036393 -0.0277053
internal_weight=0 1025.08 658.029 383.898 274.13 579.662 539.358 389.263 252.338 137.734 114.603 208.312 113.929 91.4807 94.383 367.054 348.15 145.336 202.814 83.0983 84.4084 176.591 109.276 180.95 67.8764 54.2775 26.2233 135.052 41.1465 70.3096
internal_count=7000 4519 3004 1802 1202 2481 2295 1672 1104 626 478 871 472 379 399 1515 1435 598 837 351 353 730 462 801 333 267 107 559 171 294
is_linear=0
shrinkage=0.1


Tree=12
num_leaves=31
num_cat=0
split_feature=25 5 27 9 0 24 4 0 3 24 5 3 26 22 0 22 21 17 18 27 26 19 5 27 21 26 24 23 1 22
split_gain=36.0467 27.9131 25.8447 20.3183 18.095 13.8213 13.8422 13.1481 12.3356 12.0012 10.5411 12.2121 10.298 10.245 11.9617 10.295 10.6998 9.52365 9.21278 8.93304 13.5061 9.60389 8.52415 9.25635 9.54832 8.40007 10.0249 8.37049 12.2922 8.27259
threshold=1.4185000000000001 0.90350000000000008 0.9105000000000002 1.2635000000000003 1.5835000000000001 0.9195000000000001 -1.0074999999999996 1.9360000000000002 1.8845000000000003 0.74850000000000005 1.7145000000000004 1.8845000000000003 0.88150000000000006 1.0525000000000002 1.3550000000000002 0.82850000000000013 0.76550000000000018 0.72650000000000003 -0.39249999999999996 0.83950000000000002 0.84550000000000003 0.72600000000000009 1.7145000000000004 0.81050000000000011 0.89450000000000018 0.98950000000000016 0.96750000000000014 1.0985000000000003 1.0000000180025095e-35 0.77550000000000019
decision_type=2 2 2 2 2 2 2 2 2 2 2 2 2 2 2 2 2 2 2 2 2 2 2 2 2 2 2 2 2 2
left_child=1 3 12 7 10 9 -7 13 25 -6 27 -12 22 15 17 16 -1 -15 -16 20 -17 -21 23 -3 -25 -2 -27 -4 -29 -28
right_child=8 2 4 -5 5 6 -8 -9 -10 -11 11 -13 -14 14 18 19 -18 -19 -20 21 -22 -23 -24 24 -26 26 29 28 -30 -31
leaf_value=-0.028435571383390607 0.018571967054947725 0.030116154803882106 -0.0014301868658477127 0.045611389635247045 0.0098447310710721211 0.099999953017094897 -0.038344054500495321 0.053460471862917795 -0.12310416230936286 -0.15302004199763486 0.10128232182064685 -0.040181876874516222 0.062792196722646493 -0.018700511870655814 -0.17188644781058804 -0.032306775676403852 0.024358605762894711 0.039718535779359264 -0.014232006320387961 -0.067478973764867736 0.021301790832086231 -0.0090372269251840272 0.097408738858675264 -0.10229357999726268 0.019933758880684362 -0.068863435949991517 0.074772978594907613 -0.0025916742808056079 0.12816818905106808 -0.028111183995528029
leaf_weight=68.984672471880913 29.553035989403725 105.77316081523895 176.15801404416561 68.430647104978561 6.2867076694965389 8.9439498186111432 37.795265793800354 29.861919224262238 15.563067033886908 16.141137182712555 25.412886142730713 8.0307332724332792 143.89074067771435 42.075082242488861 5.8399032503366461 177.53797763586044 86.555496141314507 82.865208581089973 10.146954715251921 95.243300497531891 63.914901956915855 39.898414611816406 14.668567553162573 11.926944449543955 13.770581841468809 68.825983703136444 8.4784749001264554 15.90075643360615 13.12218241393566 99.912305369973183
leaf_count=297 121 471 746 302 27 37 158 129 82 72 111 33 739 177 24 740 367 360 43 404 300 170 68 51 60 321 36 67 55 432
internal_value=0 0.00616429 0.022383 -0.00640564 0.00219963 -0.0428362 -0.0118707 -0.0114696 -0.0372473 -0.107368 0.0152536 0.0673129 0.0438023 -0.0143503 0.00962375 -0.0206995 0.000943503 0.0200452 -0.0718222 -0.0296384 -0.0181161 -0.050225 0.0251047 0.0170375 -0.0367954 -0.0307851 -0.039016 0.00676816 0.056529 -0.0200634
internal_weight=0 1369.18 597.822 771.354 307.792 69.1671 46.7392 702.924 222.333 22.4278 238.625 33.4436 290.03 673.062 140.927 532.135 155.54 124.94 15.9869 376.595 241.453 135.142 146.139 131.471 25.6975 206.77 177.217 205.181 29.0229 108.391
internal_count=7000 6008 2695 3313 1306 294 195 3011 992 99 1012 144 1389 2882 604 2278 664 537 67 1614 1040 574 650 582 111 910 789 868 122 468
is_linear=0
shrinkage=0.1


Tree=13
num_leaves=31
num_cat=0
split_feature=25 25 5 27 26 21 9 10 24 27 3 13 22 22 25 27 21 5 21 13 22 24 23 21 14 0 22 3 13 17
split_gain=31.7058 32.9082 18.3267 15.3255 13.1192 12.3102 15.813 10.4849 10.1177 19.9472 10.1081 9.25555 8.72969 10.5003 11.7078 10.931 8.48902 8.69761 9.96339 8.35374 8.21499 8.18904 8.11769 8.25321 8.75412 7.62024 7.98673 9.52049 7.07397 6.90263
threshold=0.98650000000000004 0.5465000000000001 0.77950000000000019 1.0195000000000001 0.74650000000000005 1.0775000000000003 1.0425000000000002 0.37350000000000005 1.2105000000000004 0.9105000000000002 1.0955000000000001 1.3035000000000003 1.0105000000000002 0.70750000000000013 0.77650000000000008 0.75650000000000006 1.0775000000000003 0.90350000000000008 0.58550000000000002 0.5445000000000001 0.97750000000000015 0.69450000000000001 0.98750000000000016 0.76550000000000018 0.32950000000000007 1.5835000000000001 0.77550000000000019 1.2195000000000003 0.75950000000000017 1.2835000000000003
decision_type=2 2 2 2 2 2 2 2 2 2 2 2 2 2 2 2 2 2 2 2 2 2 2 2 2 2 2 2 2 2
left_child=1 29 4 12 20 6 10 -7 9 16 -6 -12 13 -4 15 -15 17 -2 -19 -11 21 -3 23 -20 -25 26 -5 -28 -18 -1
right_child=8 2 3 25 5 7 -8 -9 -10 19 11 -13 -14 14 -16 -17 28 18 22 -21 -22 -23 -24 24 -26 -27 27 -29 -30 -31
leaf_value=-0.02763285157385564 -0.03468422160889973 0.0039888297820249805 0.091811541040932781 0.11787951355911569 0.029704799397261884 -0.069492956956304641 0.082337899217920812 0.035136295964810077 0.0015562163386479237 -0.13149317218081322 -0.036412850953190933 0.077532609442830913 0.070749932774896496 0.051080364305062381 0.048124905883307791 -0.028211931971531712 -0.049676371319456292 0.095361659313534713 0.13133181420524162 -0.04544976541049095 0.022754558458263401 -0.077131476891143247 -0.031707752927901456 0.045243401576745876 -0.1075549284695875 -0.044183955371935701 0.039472258003850298 -0.024266109223541082 0.067207934872477323 0.023472140318843347
leaf_weight=213.09902794659138 97.136145770549774 18.087351515889168 28.040180832147598 7.3127563744783393 107.07566766440868 28.615926310420036 38.287280097603798 14.395814314484594 171.5811438113451 12.04607245326042 53.268416091799736 8.2300528585910779 99.03305347263813 25.614649340510368 104.64487358927727 54.11971440911293 6.5812218487262752 11.631941393017767 7.0688326209783581 178.25470235943794 19.819649308919907 39.88795493543148 42.573438391089439 14.262926876544954 5.0867485851049414 25.251118510961533 49.645476803183556 44.386962831020355 24.282355025410652 30.171433448791504
leaf_count=884 406 75 147 31 488 119 176 60 727 56 234 36 490 113 542 243 28 51 31 817 81 168 181 61 21 107 215 184 102 126
internal_value=0 0.0107459 0.0209252 0.0343054 0.0030376 0.0142024 0.0243235 -0.0344741 -0.0187496 -0.0274833 0.011147 -0.0211641 0.0462305 0.0347992 0.0261288 -0.0027393 -0.00612664 -0.0145319 0.00974766 -0.0508963 -0.0328232 -0.0518233 -0.00468674 0.0388576 0.00507494 0.00496736 0.0172139 0.00938527 0.042284 -0.0212946
internal_weight=0 1008.99 765.717 438.049 327.668 249.873 206.861 43.0117 570.506 398.924 168.574 61.4985 311.452 212.419 184.379 79.7344 208.624 177.76 80.6239 190.301 77.795 57.9753 68.9919 26.4185 19.3497 126.596 101.345 94.0324 30.8636 243.27
internal_count=7000 4519 3509 2072 1437 1113 934 179 2481 1754 758 270 1535 1045 898 356 881 751 345 873 324 243 294 113 82 537 430 399 130 1010
is_linear=0
shrinkage=0.1


Tree=14
num_leaves=31
num_cat=0
split_feature=25 25 5 0 26 27 27 3 14 27 0 13 3 5 8 22 21 24 0 21 19 16 0 6 5 8 19 22 25 11
split_gain=26.9978 20.6322 16.4847 14.1633 10.8955 22.4902 13.5697 10.7218 10.6233 10.4575 10.2436 10.2249 9.99379 9.59905 9.5074 9.30957 17.4581 16.5434 9.15466 8.90671 9.1714 7.86036 7.56734 7.50558 7.44207 9.23809 7.21082 7.16128 7.0965 9.46535
threshold=1.2175000000000002 0.5465000000000001 1.1265000000000003 1.9360000000000002 0.84550000000000003 0.83950000000000002 0.75650000000000006 1.8845000000000003 0.6905 1.2235000000000003 0.47950000000000004 0.9085000000000002 1.8845000000000003 1.7145000000000004 1.0000000180025095e-35 1.0105000000000002 0.9195000000000001 1.0305000000000002 1.1825000000000003 0.58550000000000002 1.0000000180025095e-35 1.9110000000000003 1.0485000000000002 1.4375000000000002 1.7145000000000004 1.0000000180025095e-35 1.4845000000000004 1.0105000000000002 0.98650000000000004 -1.2344999999999999
decision_type=2 2 2 2 2 2 2 2 2 2 2 2 2 2 2 2 2 2 2 2 2 2 2 2 2 2 2 2 2 2
left_child=1 -1 4 12 6 11 10 13 18 -5 -3 28 24 19 22 17 -17 21 -8 20 -2 -7 -15 -13 25 -4 -12 -21 29 -6
right_child=7 2 3 9 5 15 8 -9 -10 -11 26 23 -14 14 -16 16 -18 -19 -20 27 -22 -23 -24 -25 -26 -27 -28 -29 -30 -31
leaf_value=-0.019208530344589459 0.094194516517110194 -0.051393874762332516 0.017742517377777454 0.021670074270894183 -0.051513139881448858 -0.033021846272433611 -0.037013002335005159 -0.092266712878495583 0.015484693031336698 -0.10509699826536784 0.022119858994330919 0.083939941943793131 -0.011511420829505719 0.1988207959652335 -0.0084800053593860596 0.067918898643616499 -0.0051913385942056406 0.0088337335108348951 -0.11721081540180195 -0.045764672816146379 -0.025679368059285074 -0.10877520523028544 0.030703607382007215 -0.049980476631109029 0.093915811618332443 0.068918550312683083 -0.058397000373473 -0.011720282741681139 -0.033338990987519766 0.051390997487351091
leaf_weight=242.75422778725624 11.924789622426035 26.646327003836632 69.706276878714561 15.406309053301813 10.34855857491493 50.714310795068741 44.535043582320213 22.2170390188694 23.706391736865044 11.266378015279768 141.26019044220448 63.561347007751465 26.663066238164902 4.9866049736738223 19.529875114560127 48.356926083564758 100.63184303045273 110.12450623512268 20.919755920767784 150.35318267345428 13.732280030846594 18.765898242592812 5.7818677425384521 4.4799189716577521 37.203618615865707 71.408374756574631 12.073366835713385 104.89295788109303 17.45493195950985 65.607854619622231
leaf_count=1010 51 114 324 71 53 226 191 119 101 47 601 327 115 21 88 219 432 475 88 680 59 86 25 23 183 352 52 445 74 348
internal_value=0 0.00691941 0.0133207 0.0366711 0.00619571 0.0150738 -0.00996935 -0.0251521 -0.0418715 -0.0318756 0.00583481 0.0456361 0.0455905 -0.0203607 0.0331157 5.7217e-05 0.0185379 -0.0152732 -0.0626447 -0.0261287 0.0300351 -0.0534821 0.108554 0.0751225 0.0541287 0.0436392 0.01578 -0.0317742 0.0241581 0.037371
internal_weight=0 1233.6 990.841 231.654 759.187 490.046 269.141 333.419 89.1612 26.6727 179.98 161.453 204.981 311.202 30.2983 328.593 148.989 179.605 65.4548 280.903 25.6571 69.4802 10.7685 68.0413 178.318 141.115 153.334 255.246 93.4113 75.9564
internal_count=7000 5512 4502 1092 3410 2263 1147 1488 380 118 767 825 974 1369 134 1438 651 787 279 1235 110 312 46 350 859 676 653 1125 475 401
is_linear=0
shrinkage=0.1


Tree=15
num_leaves=31
num_cat=0
split_feature=27 5 22 24 22 22 27 26 24 3 26 22 25 25 24 11 11 9 18 23 5 18 8 17 25 1 2 20 5 11
split_gain=23.4844 25.3994 20.3837 18.0509 17.0728 14.8649 12.6959 19.2294 12.2653 11.8297 11.5032 11.1358 16.0173 20.639 10.7817 13.2903 10.4183 9.65134 9.33474 8.99498 8.94609 8.55447 8.52174 8.27649 8.16691 8.23297 7.96846 7.72033 7.66255 7.65631
threshold=1.0195000000000001 1.2425000000000004 1.0525000000000002 1.0305000000000002 0.82850000000000013 0.97750000000000015 0.87150000000000005 0.84550000000000003 0.74850000000000005 1.8845000000000003 0.74650000000000005 0.94850000000000001 0.71550000000000014 1.0745000000000002 0.79350000000000021 1.0000000180025095e-35 -0.74849999999999983 1.0425000000000002 1.0000000180025095e-35 1.0015000000000003 0.96750000000000014 0.83750000000000002 1.6300000000000001 1.2835000000000003 0.87650000000000017 0.61450000000000016 -0.86849999999999994 2.3265000000000002 1.1265000000000003 0.48750000000000004
decision_type=2 2 2 2 2 2 2 2 2 2 2 2 2 2 2 2 2 2 2 2 2 2 2 2 2 2 2 2 2 2
left_child=1 2 4 5 10 -2 7 17 21 28 -1 12 -10 -14 -7 -16 20 -6 -15 27 -11 -9 -17 -4 25 26 -12 -8 -5 -20
right_child=3 -3 23 9 6 14 19 8 11 16 24 -13 13 18 15 22 -18 -19 29 -21 -22 -23 -24 -25 -26 -27 -28 -29 -30 -31
leaf_value=-0.019187868945999692 -0.083566785038891422 0.047913539741779566 0.01985686485695283 -0.01262026318589194 -0.031535991586526091 0.030053290577489417 -0.038777726411516389 0.10443041646008729 -0.11279651436460376 0.13595160222791883 0.12490083134484686 0.042982324425727088 0.052778094004710521 -0.11802069187724751 -0.091945170927425532 0.035448068595748297 -0.083758218878408328 0.028839425224051377 -0.06068407805281964 -0.0041116349614265576 -0.038183998278219666 -0.042778799090725801 -0.065584651109354755 0.06877905861753851 0.0052456796596268519 0.004541341683995258 0.047930230825615913 -0.099732956442301415 0.022986381184387079 0.094558393274864733
leaf_weight=64.008822247385979 64.03675802052021 138.65074482560158 136.2204110622406 126.90390890836716 203.39750851690769 28.640185624361038 71.084224730730057 24.065836504101757 13.963939160108565 4.5563124269247046 17.726863548159599 54.960203558206558 38.119126170873642 14.019077181816103 30.443978071212769 22.493404909968376 30.826965853571892 30.439299091696739 8.3233730196952802 48.385183662176132 8.3696705400943738 4.7220699191093436 13.27569432556629 46.346136510372162 75.860707625746727 30.2860337048769 55.749054819345474 29.360922917723656 115.3952771127224 5.137889713048934
leaf_count=265 321 670 614 534 860 126 315 123 60 19 84 266 202 59 134 96 140 128 35 215 38 23 60 218 347 141 260 127 498 22
internal_value=0 0.00787302 0.00216249 -0.0193156 -0.00480013 -0.046341 -0.0146227 -0.00528772 0.0210425 -0.00430412 0.0172123 0.00836494 -0.0155478 0.00515321 -0.0212094 -0.0433828 -0.0521602 -0.0236767 -0.0609092 -0.0395328 0.0231975 0.0802837 -0.00205021 0.0322762 0.0301835 0.0484157 0.0665002 -0.0565954 0.00433744 -0.00143119
internal_weight=0 1110.83 972.177 444.942 789.61 158.89 545.979 397.148 163.312 286.052 243.631 134.524 79.5634 65.5995 94.8533 66.2131 43.7529 233.837 27.4803 148.83 12.926 28.7879 35.7691 182.567 179.623 103.762 73.4759 100.445 242.299 13.4613
internal_count=7000 5034 4364 1966 3532 737 2435 1778 790 1229 1097 644 378 318 416 290 197 988 116 657 57 146 156 832 832 485 344 442 1032 57
is_linear=0
shrinkage=0.1


Tree=16
num_leaves=31
num_cat=0
split_feature=25 25 26 27 27 26 9 21 3 24 23 17 0 27 0 1 2 13 24 27 22 5 16 11 13 21 6 14 15 1
split_gain=21.9382 21.8414 21.6291 18.5624 12.0994 17.0898 11.0228 10.3541 9.92186 9.89047 11.1623 10.0457 9.81566 9.12408 8.56076 9.06424 8.29168 8.52113 7.83284 15.9353 9.08561 8.96765 7.10947 7.0004 7.4728 6.98939 10.0777 9.17634 6.57821 6.5599
threshold=0.98650000000000004 0.77650000000000008 0.88150000000000006 0.9105000000000002 0.83950000000000002 0.74650000000000005 1.4225000000000001 0.94950000000000012 1.3655000000000002 0.74850000000000005 1.1885000000000001 0.59250000000000014 1.3550000000000002 0.75650000000000006 0.47950000000000004 0.83450000000000013 0.66850000000000021 0.5445000000000001 1.2105000000000004 1.0965000000000003 1.4490000000000003 1.7145000000000004 1.0000000180025095e-35 -0.51149999999999995 0.6925 0.76550000000000018 0.17950000000000002 0.32950000000000007 -1.0000000180025095e-35 -0.20249999999999999
decision_type=2 2 2 2 2 2 2 2 2 2 2 2 2 2 2 2 2 2 2 2 2 2 2 2 2 2 2 2 2 2
left_child=1 4 8 7 5 6 9 29 12 11 -11 16 -3 -14 -13 -16 -1 -18 19 21 -21 23 -6 -2 -25 26 28 -27 -26 -4
right_child=18 2 3 -5 22 -7 -8 -9 -10 10 -12 14 13 -15 15 -17 17 -19 -20 20 -22 -23 -24 24 25 27 -28 -29 -30 -31
leaf_value=-0.084567879991436348 -0.036626136999466555 0.016858813979821825 0.058162462099092919 0.020925291812856708 -0.0054782423393171832 0.030434608145135378 0.10814069210907878 0.016149688552808083 -0.075379831186169352 -0.070334797841415414 0.041596313648622679 -0.052544196984935621 0.016329932387216237 -0.13041906575859061 0.054344989706834629 -0.050799216589079148 0.11826729712789996 -0.059353817684441083 0.0021771947508078798 -0.084824521843872625 -0.013728964297621302 0.093805740419368011 -0.040558791928581216 -0.039689264668710263 -0.070958342001928756 0.016409906125016051 0.12920530279829665 -0.041614942175271695 0.051843477541959171 0.11317717496202279
leaf_weight=20.616798549890522 104.39204551279545 99.99252612888813 37.454169914126396 154.82655982673168 131.74283644556999 175.98666164278984 7.0991249382495871 24.141486287117004 17.739298775792122 50.981266468763351 10.796208307147024 13.143474638462065 7.6423721164464977 9.5077546238899213 48.935615882277489 9.8491992801427823 5.0579581111669523 5.7957874685525894 169.93545237183571 56.904823333024979 26.274591326713562 7.6636862009763709 102.88708157837391 46.033211663365364 6.9171126931905791 76.274140402674675 10.411840438842772 42.408279106020927 11.809585705399513 51.443264290690422
leaf_count=86 460 466 232 678 562 794 33 138 81 215 45 55 36 43 203 41 21 24 727 294 115 35 445 202 30 337 45 185 51 321
internal_value=0 0.00906541 0.0269739 0.0434184 -0.00330842 0.00851728 -0.0138722 0.0742267 -0.00568366 -0.0191162 -0.0507738 -0.000201834 0.00487066 -0.0650254 0.0204156 0.0367284 -0.0473246 0.0234195 -0.0157341 -0.0235569 -0.062367 -0.0130041 -0.0208613 -0.0157487 -0.00450598 0.00645052 0.050335 -0.00432386 0.00648396 0.0899984
internal_weight=0 985.639 402.747 267.865 582.892 348.262 172.275 113.039 134.882 165.176 61.7775 103.399 117.143 17.1501 71.9283 58.7848 31.4705 10.8537 559.025 389.089 83.1794 305.91 234.63 298.246 193.854 147.821 29.1385 118.682 18.7267 88.8974
internal_count=7000 4519 1995 1369 2524 1517 723 691 626 690 260 430 545 79 299 244 131 45 2481 1754 409 1345 1007 1310 850 648 126 522 81 553
is_linear=0
shrinkage=0.1


Tree=17
num_leaves=31
num_cat=0
split_feature=25 5 0 9 3 0 5 6 3 22 17 3 0 9 9 21 10 4 10 4 0 15 2 21 22 24 27 4 13 6
split_gain=19.0002 17.2285 17.6156 14.2929 14.0714 10.4527 10.0381 9.93612 9.80261 9.49901 8.0994 13.2568 9.72673 11.835 9.10766 10.3658 9.02809 8.06377 7.78836 8.74242 7.78553 7.61728 8.23771 7.69836 7.37133 7.2469 11.8178 6.9091 6.87043 6.46232
threshold=1.4185000000000001 0.90350000000000008 1.3550000000000002 1.2635000000000003 1.5715000000000001 1.9360000000000002 1.7145000000000004 -1.4244999999999999 1.8845000000000003 1.4490000000000003 0.72650000000000003 1.3655000000000002 1.3550000000000002 0.69150000000000011 1.0425000000000002 0.99250000000000005 -0.83149999999999979 -1.0074999999999996 0.57350000000000001 1.2515000000000003 1.1825000000000003 -0.97449999999999981 0.42750000000000005 0.9195000000000001 1.0525000000000002 0.9195000000000001 0.95850000000000002 -1.24 1.7570000000000003 1.4375000000000002
decision_type=2 2 2 2 2 2 2 2 2 2 2 2 2 2 2 2 2 2 2 2 2 2 2 2 2 2 2 2 2 2
left_child=1 3 4 5 6 10 7 -3 20 29 14 12 24 -14 -1 -16 -13 25 28 -20 -2 23 27 -6 -12 26 -4 -23 -19 -9
right_child=8 2 17 -5 21 -7 -8 9 -10 -11 11 16 13 -15 15 -17 -18 18 19 -21 -22 22 -24 -25 -26 -27 -28 -29 -30 -31
leaf_value=-0.033339676173078175 -0.010959815600718487 -0.036653231586921915 0.04910991044622507 0.039085483663635893 0.1149194702715257 0.049100215722111436 0.090060346700275379 0.046169315048686758 -0.11150543323532819 -0.019394474165887951 0.0032867728084893413 -0.10732058419344054 0.023330697419355763 -0.077935014590588325 0.05968438086590952 -0.063189415695599299 -0.022990690788860992 -0.046940782586031682 0.038181854799475251 -0.1116307313041684 -0.057089433938798999 -0.11238681007376615 -0.06844303541288986 -0.018421339999111101 0.041456627905190668 0.075317245092385174 -0.14647997502292606 0.016969981069246857 0.076843005018927338 -0.024258765357812542
leaf_weight=224.10099019110203 150.16551458835602 19.922070637345314 8.4554493427276629 65.853371262550354 9.0647355467081088 28.96416287124157 32.532161772251129 242.90510222315788 13.10178656876087 27.553631842136383 212.11502726376057 16.366172462701797 19.544392570853233 28.183511152863503 23.037935435771942 9.7804681062698346 56.594602361321449 79.946467861533165 28.169073432683945 4.520320236682891 48.373028680682182 4.6157064735889426 25.197093650698662 8.2892741560935956 66.442949622869492 17.678742215037346 4.867535173892974 39.156072482466698 4.7503327280282965 13.76699313521385
leaf_count=978 682 91 42 302 43 129 167 1184 82 117 933 71 87 125 101 41 244 368 132 20 228 20 115 35 302 79 23 172 21 66
internal_value=0 0.00454365 0.0176293 -0.00541265 0.0280287 -0.00968973 0.037264 0.0316169 -0.0277277 0.0364021 -0.0122848 -0.00337235 0.00524441 -0.0364671 -0.0261345 0.0230658 -0.0419071 -0.0120159 -0.0239958 0.0174656 -0.0221991 -0.00799113 -0.022892 0.0512282 0.0123912 0.0333454 -0.0223486 0.00332939 -0.0399982 0.0423918
internal_weight=0 1322.37 571.391 750.984 423.003 685.13 336.68 304.148 211.64 284.226 656.166 399.247 326.286 47.7279 256.919 32.8184 72.9608 148.388 117.386 32.6894 198.539 86.3229 68.9689 17.354 278.558 31.0017 13.323 43.7718 84.6968 256.672
internal_count=7000 6008 2695 3313 2010 3011 1625 1458 992 1367 2882 1762 1447 212 1120 142 315 685 541 152 910 385 307 78 1235 144 65 192 389 1250
is_linear=0
shrinkage=0.1


Tree=18
num_leaves=31
num_cat=0
split_feature=25 25 5 22 27 22 25 22 21 19 27 1 15 22 7 11 14 18 22 22 13 27 24 26 12 5 27 18 24 2
split_gain=16.7668 18.4395 11.2339 9.25867 8.23022 10.2125 8.2236 7.99617 14.3292 8.37644 7.59499 7.53712 10.8965 8.30551 11.3412 8.79425 8.25319 9.10635 7.19516 10.5184 9.74677 8.31526 11.6577 8.25133 7.15121 7.08262 7.01234 7.61879 7.56978 9.82799
threshold=0.98650000000000004 0.5465000000000001 0.77950000000000019 0.70750000000000013 1.0195000000000001 1.0105000000000002 0.77650000000000008 1.0525000000000002 1.2570000000000003 1.2205000000000001 0.75650000000000006 0.83450000000000013 0.99400000000000011 0.94850000000000001 0.20550000000000002 1.0000000180025095e-35 0.6905 0.83750000000000002 1.0105000000000002 0.77550000000000019 0.61950000000000005 1.0965000000000003 1.5840000000000003 0.84550000000000003 1.6610000000000003 1.7145000000000004 0.9105000000000002 -0.8224999999999999 1.3475000000000004 1.3085000000000002
decision_type=2 2 2 2 2 2 2 2 2 2 2 2 2 2 2 2 2 2 2 2 2 2 2 2 2 2 2 2 2 2
left_child=1 -1 7 -4 5 6 10 11 9 -9 -5 16 13 14 -13 24 -3 -18 19 20 -2 -21 -23 -20 -16 -22 -25 -28 -29 -30
right_child=18 2 3 4 -6 -7 -8 8 -10 -11 -12 12 -14 -15 15 -17 17 -19 23 21 25 22 -24 26 -26 -27 27 28 29 -31
leaf_value=-0.016102008098416196 -0.044883973326549122 -0.0078472101707791446 0.079597078625562673 0.039914623652735022 0.00053494300771877773 0.059336792234357227 0.037511591643829133 0.08185240923418502 -0.038128065651178419 -0.046119570166454397 -0.027411255461697655 0.032120335779911774 0.044869894042664636 -0.11834308785478803 0.046115633036571568 -0.17570745890595107 0.068376070496662097 -0.033312878446205306 -0.081737030005107333 -0.022209132975240301 0.028257691534334772 -0.095790834070697869 -5.6481184735408472e-05 0.037687605171579652 -0.11646287499062452 0.15481787578680284 -0.042817354195360903 -0.011359451192467427 0.056914216743956761 -0.096083623726701609
leaf_weight=239.40811197459698 17.445289433002472 148.0851403772831 30.656648442149162 24.471427381038666 118.18787014484406 91.362740680575371 96.777311258018017 38.415416657924652 19.459629341959953 5.9004256576299658 53.143171101808548 15.592865318059919 12.964858010411261 15.637462154030798 5.8006631433963793 6.6499199122190467 32.840161517262459 12.033157765865324 11.721761226654051 215.01018273830414 32.058182924985886 39.338243335485458 18.79773186147213 48.892921522259712 5.0705160796642303 5.1292939335107794 40.965982228517532 79.842058405280113 38.958651512861252 4.7056169062852851
leaf_count=1010 76 669 172 113 512 490 542 184 81 28 243 71 58 70 26 29 146 53 49 959 142 220 85 210 22 23 179 349 168 21
internal_value=0 0.00799351 0.0158629 0.0267123 0.0224896 0.0322534 0.0180646 0.00173781 0.0334033 0.0648136 -0.0061838 -0.00619184 -0.0366106 -0.0582794 -0.0299154 -0.085124 0.00353738 0.0411073 -0.0138167 -0.0232703 0.0167845 -0.0312818 -0.064836 -5.01733e-05 -0.0297139 0.0457142 0.0044375 -0.0054468 0.00694868 0.0404259
internal_weight=0 972.457 733.049 414.599 383.943 265.755 174.392 318.45 63.7755 44.3158 77.6146 254.675 61.7163 48.7514 33.114 17.5211 192.958 44.8733 552.866 327.779 54.6328 273.146 58.136 225.087 10.8712 37.1875 213.365 164.472 123.506 43.6643
internal_count=7000 4519 3509 2072 1900 1388 898 1437 293 212 356 1144 276 218 148 77 868 199 2481 1505 241 1264 305 976 48 165 927 717 538 189
is_linear=0
shrinkage=0.1


Tree=19
num_leaves=31
num_cat=0
split_feature=25 9 22 22 24 27 24 6 26 17 3 16 1 17 21 26 25 25 9 1 26 22 26 13 5 6 0 0 2 6
split_gain=13.9315 13.3089 10.5092 17.063 11.4356 25.6274 12.364 10.6865 9.98849 9.28913 8.94103 7.65277 9.00352 7.43824 7.36554 7.37351 8.848 7.03443 10.312 6.84499 6.8685 7.66678 6.78073 6.64702 6.48968 7.03815 6.47125 6.38422 6.31447 6.26016
threshold=1.4185000000000001 1.7005000000000001 1.0105000000000002 0.77550000000000019 1.0305000000000002 0.83950000000000002 0.69450000000000001 -0.77449999999999986 0.84550000000000003 0.72650000000000003 1.8845000000000003 1.9110000000000003 1.0000000180025095e-35 0.6625000000000002 0.99250000000000005 1.5705000000000002 0.5465000000000001 0.98650000000000004 1.2635000000000003 1.4875000000000003 0.74650000000000005 0.70750000000000013 0.84550000000000003 0.61950000000000005 0.71450000000000002 -1.4244999999999999 1.5835000000000001 1.1825000000000003 0.42750000000000005 0.58250000000000013
decision_type=2 2 2 2 2 2 2 2 2 2 2 2 2 2 2 2 2 2 2 2 2 2 2 2 2 2 2 2 2 2
left_child=1 2 3 13 5 8 -7 -8 -5 -10 27 12 -9 19 15 16 -4 -18 22 20 21 -1 -19 -3 25 -16 -25 -2 -6 -15
right_child=10 23 14 4 28 6 7 11 9 -11 -12 -13 -14 29 24 -17 17 18 -20 -21 -22 -23 -24 26 -26 -27 -28 -29 -30 -31
leaf_value=0.011106326872882977 -0.0086707549324694915 -0.03158570892102544 -0.018280002094836555 -0.017326238129382703 0.020636942450992179 0.022510659364006785 -0.12449791272414922 -0.07382970672302519 -0.016750133056839766 0.049654548555152507 -0.10748978596072144 -0.095952919833092551 0.0061784379910487658 0.053605622425446267 -0.1348524435478283 -0.063126270446139332 0.052872935291471836 -0.089204125849044066 0.10641907177548866 -0.10579247786034547 0.022693055413959839 -0.12474197104536869 0.0091369704279544283 0.075376958691488138 0.010633153032438095 -0.017431957043466013 -0.020701988445119758 -0.050978211371643892 -0.016727034594993188 0.0011500512032900404
leaf_weight=9.2517497390508669 148.6896952688694 8.9855384379625303 31.173242926597595 225.72167783975601 126.73991782218218 16.170566335320473 28.036256268620491 26.908755630254745 35.615836217999458 51.565137252211571 12.073743797838686 28.018669269979 29.467988967895508 77.848014354705811 5.8464297950267783 8.6839157342910749 122.93203054368496 8.5573572665452939 9.3244676291942579 5.8564244061708441 58.277970865368843 7.5401679724454871 38.811210259795189 47.259919084608555 148.34610560536385 40.23644532263279 8.2311849892139417 46.92364601790905 70.329180479049683 32.145647138357162
leaf_count=39 682 41 131 972 578 75 132 124 176 272 82 134 137 368 24 38 635 36 41 28 278 32 164 235 644 171 37 228 316 150
internal_value=0 0.00390612 0.00160901 -0.00488521 -0.0127275 -0.0216681 -0.0592487 -0.0710078 -0.00622249 0.0225264 -0.0239742 -0.0532383 -0.0320096 0.021345 0.0146237 0.027179 0.0308992 0.039434 0.0102934 -0.00166674 0.00645642 -0.0498944 -0.00862882 0.0482049 0.000450455 -0.0323288 0.0611252 -0.0188194 0.00730265 0.0382755
internal_weight=0 1307.88 1243.41 829.494 638.574 441.505 128.602 112.432 312.903 87.181 207.687 84.3954 56.3767 190.92 413.911 219.482 210.798 179.625 56.693 80.9263 75.0699 16.7919 47.3686 64.4766 194.429 46.0829 55.4911 195.613 197.069 109.994
internal_count=7000 6008 5695 3811 2916 2022 602 527 1420 448 992 395 261 895 1884 1045 1007 876 241 377 349 71 200 313 839 195 272 910 894 518
is_linear=0
shrinkage=0.1


Tree=20
num_leaves=31
num_cat=0
split_feature=27 5 3 26 24 25 25 24 0 4 22 22 3 12 14 15 27 22 7 11 21 24 17 25 23 6 13 26 27 24
split_gain=12.6439 16.8667 11.5209 11.2566 14.3549 15.0421 18.2135 9.88103 10.356 11.5326 9.13432 9.7908 13.0684 8.37689 7.97814 8.58444 7.82038 8.72366 7.5789 10.156 9.28869 7.25759 7.24456 7.93321 7.16737 7.11562 7.79684 7.05938 7.37612 6.86978
threshold=1.0195000000000001 1.2425000000000004 1.8845000000000003 0.84550000000000003 0.74850000000000005 0.98650000000000004 0.71550000000000014 1.0305000000000002 1.3550000000000002 -1.24 1.0105000000000002 0.82850000000000013 0.79250000000000009 1.6610000000000003 -1.369 -1.2349999999999997 0.72250000000000003 0.70750000000000013 1.0725000000000002 -0.25249999999999995 0.94950000000000012 0.96750000000000014 1.7845000000000002 0.9255000000000001 0.99250000000000005 0.58250000000000013 0.61950000000000005 0.74650000000000005 0.75650000000000006 0.79350000000000021
decision_type=2 2 2 2 2 2 2 2 2 2 2 2 2 2 2 2 2 2 2 2 2 2 2 2 2 2 2 2 2 2
left_child=1 3 7 16 25 6 10 8 9 13 11 -6 -13 -2 -7 21 -1 -18 20 -20 -8 -16 23 27 -17 -5 -27 -19 -29 -11
right_child=2 -3 -4 4 5 14 18 -9 -10 29 -12 12 -14 -15 15 24 17 22 19 -21 -22 -23 -24 -25 -26 26 -28 28 -30 -31
leaf_value=0.002563082619287272 0.13695935517931826 0.039392126874354977 -0.054570214871065705 0.071609396004981313 0.010870937525362244 0.057674526375015134 0.067374555504696329 0.0043511504922962704 -0.079423194196791738 0.016602365825421413 0.038706843470551471 -0.15399814849738941 -0.027919152761962926 -0.020801666513001756 -0.024781910928356118 -0.048808123353307836 0.060716272292559118 -0.052209743161172155 0.060239852360595363 -0.051860728692844506 0.010994225204138126 0.086184926596437603 0.073016930174816017 -0.078837044210086915 -0.00592695455475762 -0.097989575711674728 0.037439392062858685 0.03353330631948049 -0.025628406979393333 -0.046008402953479272
leaf_weight=210.92007946968079 8.0299634188413602 131.72879032790661 61.266339465975761 52.518082678318024 25.105295658111572 13.466888874769209 93.039194688200951 238.61727112531662 31.879580803215504 24.778611287474632 21.205966517329216 12.348848104476927 24.596013128757477 5.7945491820573798 11.104454562067987 90.967731162905693 11.297722309827803 57.171836853027344 14.152877993881701 18.840157844126225 42.601269342005253 12.560958608984945 6.6433109045028678 31.76399427652359 68.202710077166557 5.5638487786054638 18.016495995223522 29.808626011013985 71.919042155146599 59.859812095761299
leaf_count=899 37 670 299 276 109 59 548 1032 167 115 94 53 108 28 49 397 51 245 78 103 214 54 28 138 298 27 90 134 312 288
internal_value=0 0.00587208 -0.0144121 0.00119368 0.0109628 0.00414454 0.0203172 -0.00774379 -0.0298859 -0.0138471 -0.0179526 -0.0373163 -0.0700612 0.0708338 -0.0166076 -0.0220789 -0.011015 -0.0247438 0.0392113 -0.00377343 0.0496669 0.0341163 -0.0296372 -0.033214 -0.030434 0.0511195 0.00548455 -0.0240939 -0.00829262 -0.0276786
internal_weight=0 1075.54 430.226 943.815 524.291 448.192 251.89 368.96 130.343 98.4629 83.2561 62.0502 36.9449 13.8245 196.303 182.836 419.525 208.605 168.633 32.993 135.64 23.6654 197.307 190.663 159.17 76.0984 23.5803 158.9 101.728 84.6384
internal_count=7000 5034 1966 4364 2557 2164 1307 1667 635 468 364 270 161 65 857 798 1807 908 943 181 762 103 857 829 695 393 117 691 446 403
is_linear=0
shrinkage=0.1


Tree=21
num_leaves=31
num_cat=0
split_feature=22 27 24 22 24 26 5 21 21 2 23 24 3 14 0 27 26 3 21 5 26 11 10 27 17 15 26 25 19 3
split_gain=12.5572 17.1728 17.5877 11.6962 10.1507 9.6453 9.60629 9.43324 8.45394 8.33586 7.94694 10.0504 9.54582 9.26784 7.64691 7.48485 11.612 12.9976 9.45306 7.47408 7.1823 6.9971 7.2081 7.15706 10.5107 7.07349 6.89332 6.87516 6.68144 6.66609
threshold=1.0525000000000002 1.0965000000000003 1.1075000000000002 0.77550000000000019 0.74850000000000005 0.8045000000000001 1.7145000000000004 0.58550000000000002 0.76550000000000018 -0.86849999999999994 0.99550000000000016 1.5840000000000003 0.28750000000000003 0.88950000000000007 0.47950000000000004 0.87150000000000005 0.84550000000000003 1.2195000000000003 0.94950000000000012 0.90350000000000008 0.8045000000000001 -1.2344999999999999 -1.458 1.0195000000000001 0.6625000000000002 -0.48149999999999993 1.0405000000000002 0.87650000000000017 -1.2494999999999998 0.41250000000000003
decision_type=2 2 2 2 2 2 2 2 2 2 2 2 2 2 2 2 2 2 2 2 2 2 2 2 2 2 2 2 2 2
left_child=1 3 -3 8 -2 -6 7 9 19 27 15 12 -12 -14 -4 16 17 28 26 -1 -20 22 -7 24 29 -24 -17 -5 -9 -23
right_child=4 2 14 6 5 21 -8 10 -10 -11 11 -13 13 -15 -16 18 -18 -19 20 -21 -22 23 25 -25 -26 -27 -28 -29 -30 -31
leaf_value=-0.026143246558535921 0.044970341192065652 -0.083824268958994599 0.042359182690702935 -0.10798451412100947 -0.068924795202828321 -0.13104201141709251 0.065825805247302208 0.035485997488999638 0.039136804976787287 0.06199631106821242 -0.13360760235613059 0.13589467801557217 -0.0058429984925345325 0.047621275766150939 -0.027196383831167476 -0.084347455312056174 0.014443161420888782 -0.094884032553993539 0.11950301314702989 0.038106367704039593 -0.013859493365046896 0.10151467035397128 -0.07838369978306664 0.0042053199566676183 0.056673557540388879 0.014312329993493576 -0.031315161022419206 0.050253373768714353 -0.02395860982354418 -0.037442303546638016
leaf_weight=51.563682436943054 87.475993417203426 52.876231960952282 20.670708909630775 6.220000743865965 16.042993232607841 5.6395080387592307 17.934934161603451 22.131455391645432 111.06681456416845 32.818117991089821 5.1834497153758994 5.6215979456901541 182.10380933433771 39.446076452732086 67.161543875932693 44.638292923569679 118.6586961299181 23.726166918873787 4.4154441952705374 27.903706334531307 47.275100111961365 4.072609759867194 11.260004200041292 172.09389197081327 75.556827537715435 30.61330783367157 54.356794662773609 4.9157780259847641 129.81681624054909 22.666511356830597
leaf_count=233 423 298 93 28 68 24 96 97 536 154 24 24 841 187 299 205 605 102 19 146 213 20 52 751 384 137 255 22 561 103
internal_value=0 -0.00570009 -0.0382583 -0.000772976 0.0146093 0.0067505 -0.00646696 -0.00826443 0.0213194 0.0366287 -0.0111775 0.00381243 0.0005376 0.0036761 -0.010827 -0.0190041 -0.0097247 -0.0260488 -0.0371294 -0.00358302 -0.00246757 0.010522 -0.0249083 0.0166571 0.0376048 -0.0106142 -0.0552282 -0.038132 -0.0153004 -0.0162779
internal_weight=0 1070.51 140.708 929.797 425.422 337.946 739.263 721.328 190.534 43.9539 677.374 232.355 226.733 221.55 87.8323 445.019 294.333 175.674 150.686 79.4674 51.6905 321.903 47.5128 274.39 102.296 41.8733 98.9951 11.1358 151.948 26.7391
internal_count=7000 5038 690 4348 1962 1539 3433 3337 915 204 3133 1076 1052 1028 392 2057 1365 760 692 379 232 1471 213 1258 507 189 460 50 658 123
is_linear=0
shrinkage=0.1


Tree=22
num_leaves=31
num_cat=0
split_feature=25 25 5 0 21 10 27 14 24 22 9 26 25 27 24 14 2 21 3 2 22 10 9 22 22 27 21 21 4 6
split_gain=10.5422 12.1435 7.85641 7.53239 10.5071 9.52607 8.16662 6.92791 7.43066 6.52714 6.50051 6.26887 6.25371 7.5356 7.29699 6.08632 8.36499 6.79672 6.74962 6.71467 7.21097 6.30617 6.03041 8.8615 7.45427 12.0862 8.25155 6.90224 7.03993 6.84792
threshold=0.98650000000000004 0.5465000000000001 0.77950000000000019 1.3550000000000002 0.89450000000000018 0.8025000000000001 0.81050000000000011 1.0000000180025095e-35 0.83850000000000013 0.82850000000000013 1.2635000000000003 0.88150000000000006 0.82950000000000002 1.2235000000000003 0.96750000000000014 -0.45749999999999996 0.21550000000000002 0.80750000000000022 0.61550000000000005 1.0000000180025095e-35 0.77550000000000019 -0.83149999999999979 0.88450000000000017 0.70750000000000013 1.1115000000000002 1.0965000000000003 0.76550000000000018 0.70050000000000001 1.4865000000000002 1.0585000000000002
decision_type=2 2 2 2 2 2 2 2 2 2 2 2 2 2 2 2 2 2 2 2 2 2 2 2 2 2 2 2 2 2
left_child=1 15 10 7 6 -6 -5 12 -9 -10 -3 -8 13 -4 -14 16 -1 -18 -19 -17 -21 -22 -2 -24 25 26 -25 -26 -29 -28
right_child=22 2 3 4 5 -7 11 8 9 -11 -12 -13 14 -15 -16 19 17 18 -20 20 21 -23 23 24 27 -27 29 28 -30 -31
leaf_value=0.03689737323821065 -0.024684562248361786 -0.0028038713623895345 0.0087743308533587746 0.023720522770751866 0.0045780558706175131 0.11114926773313756 -0.17277915633596627 0.073116618869706385 0.078272435008901756 0.014463120937114769 0.054868504066668891 -0.048899849672967205 0.0049202412371798952 -0.075864027909135004 0.070035242061884301 -0.046059446212026942 -0.10918457085003108 0.10547441276076147 -0.028352539441128907 0.054383033173473538 -0.084496095993203707 -0.0047752592482761466 0.080631392982286387 0.036806645976196109 -0.072678849848496777 -0.057415025159554794 -0.0073949079026915309 0.01710248634545343 0.14473571079518485 -0.082118334295732814
leaf_weight=46.141882553696632 203.24790209531784 291.14240943640471 73.473280340433121 13.561986871063707 37.179559841752052 10.830929994583128 4.9605446904897716 57.471702679991722 20.249732851982117 76.943407401442528 20.950281634926796 23.144201323390007 34.797942586243153 12.276899948716162 34.050321839749813 75.585901394486427 8.019875153899191 4.6391749083995846 20.085375234484673 16.482433989644051 12.19242452085018 53.29732757806778 12.245436951518057 39.450751662254333 8.1697637140750867 54.475424990057945 110.59961737692356 93.941174507141113 4.5299550741910926 13.793981298804281
leaf_count=197 921 1331 368 79 173 54 22 310 119 386 106 120 199 52 190 323 35 20 85 68 53 229 55 174 36 294 499 419 20 63
internal_value=0 0.00642362 0.012952 0.0222493 -0.00326805 0.02862 -0.040011 0.0296486 0.0446124 0.0277575 0.00106758 -0.0707648 0.0146783 -0.00334339 0.0371242 -0.0132086 0.00946565 -0.0291898 -0.00324201 -0.0245611 -0.00473766 -0.0196171 -0.0110786 -0.00287776 -0.00602462 -0.0166099 -0.00304291 0.015646 0.022974 -0.015681
internal_weight=0 947.478 711.033 398.941 89.6772 48.0105 41.6667 309.263 154.665 97.1931 312.093 28.1047 154.598 85.7502 68.8483 236.444 78.8863 32.7444 24.7246 157.558 81.9722 65.4898 540.454 337.206 324.961 218.32 163.844 106.641 98.4711 124.394
internal_count=7000 4519 3509 2072 448 227 221 1624 815 505 1437 142 809 420 389 1010 337 140 105 673 350 282 2481 1560 1505 1030 736 475 439 562
is_linear=0
shrinkage=0.1


Tree=23
num_leaves=31
num_cat=0
split_feature=22 27 24 22 24 13 21 5 21 23 3 23 27 21 26 3 14 18 22 9 20 17 10 4 13 25 9 24 14 22
split_gain=9.54981 12.5348 15.472 8.97798 8.49394 7.97997 7.57002 8.86829 7.19585 6.96113 10.5984 6.71548 7.95403 11.1945 10.5679 7.51052 7.35834 7.09363 7.61193 6.92806 10.3852 6.64813 13.0108 6.26867 6.24576 5.81146 5.78226 5.65275 6.38679 5.88796
threshold=1.0525000000000002 1.0965000000000003 1.1075000000000002 0.82850000000000013 0.79350000000000021 1.7570000000000003 0.58550000000000002 1.4045000000000003 0.76550000000000018 1.0015000000000003 1.2195000000000003 1.0015000000000003 0.87150000000000005 0.94950000000000012 0.74650000000000005 1.2195000000000003 0.88950000000000007 0.83750000000000002 0.9235000000000001 0.69150000000000011 1.0000000180025095e-35 1.0515000000000001 0.37350000000000005 0.25550000000000006 1.0795000000000001 0.64350000000000007 0.69150000000000011 0.96750000000000014 -0.70249999999999979 0.70750000000000013
decision_type=2 2 2 2 2 2 2 2 2 2 2 2 2 2 2 2 2 2 2 2 2 2 2 2 2 2 2 2 2 2
left_child=1 3 -3 5 24 8 -5 11 27 10 -4 12 14 25 15 -8 -13 18 -18 20 -15 22 23 -9 -2 -14 -11 29 -29 -1
right_child=4 2 9 6 -6 -7 7 21 -10 26 -12 16 13 19 -16 -17 17 -19 -20 -21 -22 -23 -24 -25 -26 -27 -28 28 -30 -31
leaf_value=0.0094138775095632173 0.019199487844827563 -0.077438052182718375 0.048883360237487836 0.039409892721157976 0.004134541568662004 0.10556036807965921 -0.027998385433857756 -0.1208179267914694 0.024366871065220345 -0.15541273635145822 -0.030774311720180515 -0.0058561087650252286 -0.11907290651820152 0.16036330635721083 0.0028763888274162836 -0.11553691713237275 -0.053426440865305125 0.13474811099237261 0.069452371887806758 -0.02137560807707559 -0.041896984795744975 0.07135182285010104 0.11541148231389971 0.017447007530511732 0.068455702820048564 -0.049786138254429957 -0.029408613660706146 -0.048762317265268439 0.040658664610404176 -0.050674303607880056
leaf_weight=27.163888014853001 75.20328725874424 50.160501383244991 32.402002349495888 32.794207401573658 307.25686660408974 9.2093617469072324 73.223290681838989 7.8111354261636752 162.4799035564065 4.7693603634834316 34.472710631787777 132.23520144820213 14.583474725484846 5.8073333054780942 187.37083411961794 11.3156391531229 8.3570496290922218 7.3589302375912657 12.70601576566696 34.736985892057419 4.5101336091756821 22.556679226458073 5.8909276351332656 5.651584804058075 39.142182670533657 71.245813176035881 15.405875124037264 10.486864060163496 33.511718615889549 40.803092390298843
leaf_count=127 365 298 143 155 1400 48 317 39 781 21 157 610 69 26 896 51 40 35 62 156 20 117 31 28 197 337 71 48 164 191
internal_value=0 -0.00500232 -0.0332013 -0.000804919 0.0127934 0.0139976 -0.00738454 -0.00991953 0.0109251 -0.00771097 0.00782126 -0.0132205 -0.0201153 -0.0403698 -0.0103658 -0.0397155 0.00406576 0.0502279 0.0206986 -4.48403e-06 0.0719481 0.0344597 -0.00853799 -0.062775 0.0360606 -0.0615588 -0.0591956 -0.00858097 0.0193456 -0.0266593
internal_weight=0 1059.02 137.21 921.81 421.602 283.655 638.155 605.361 274.445 87.0499 66.8747 563.451 402.794 130.884 271.91 84.5389 160.657 28.422 21.0631 45.0545 10.3175 41.9103 19.3536 13.4627 114.345 85.8293 20.1752 111.966 43.9986 67.967
internal_count=7000 5038 690 4348 1962 1359 2989 2834 1311 392 300 2619 1872 608 1264 368 747 137 102 202 46 215 98 67 562 406 92 530 212 318
is_linear=0
shrinkage=0.1


Tree=24
num_leaves=31
num_cat=0
split_feature=25 10 26 27 25 13 25 3 12 9 3 2 23 3 0 21 1 17 19 15 8 9 25 9 16 13 9 13 0 6
split_gain=9.11759 9.19679 8.93794 15.6084 10.7173 8.50561 9.64784 8.20227 8.15815 11.2334 10.2675 8.62836 8.10458 8.62222 7.57744 7.53654 6.76417 7.54459 8.93653 6.7338 6.62561 12.309 6.6586 9.73043 8.27631 8.40612 8.13822 7.17452 6.61791 6.81023
threshold=1.2175000000000002 -1.458 0.88150000000000006 0.9105000000000002 0.9255000000000001 0.82850000000000013 0.77650000000000008 1.3655000000000002 1.0000000180025095e-35 1.0425000000000002 1.3655000000000002 -0.59399999999999986 0.99250000000000005 0.79250000000000009 1.3550000000000002 0.86750000000000005 -1.1454999999999997 1.2835000000000003 -0.74499999999999988 -1.4929999999999997 1.6300000000000001 1.0425000000000002 0.87650000000000017 1.7005000000000001 1.9110000000000003 1.1795000000000002 1.1375000000000002 0.75950000000000017 1.9360000000000002 -0.55649999999999988
decision_type=2 2 2 2 2 2 2 2 2 2 2 2 2 2 2 2 2 2 2 2 2 2 2 2 2 2 2 2 2 2
left_child=1 19 4 5 8 6 12 14 10 11 -3 15 -4 -14 16 -10 -6 18 -18 -1 21 -5 -23 24 26 -26 -24 -28 -22 -30
right_child=-2 2 3 20 7 -7 -8 -9 9 -11 -12 -13 13 -15 -16 -17 17 -19 -20 -21 28 22 23 -25 25 -27 27 -29 29 -31
leaf_value=0.055460936152070595 -0.015115367030689792 0.024556050186248374 -0.060324022666940327 -0.032029733989054114 -0.099529870381408161 0.056469015326680472 0.040137106458528776 -0.15156257887235861 -0.091074881550411005 0.041189946284281832 -0.032294750944461874 -0.0064182484254281984 -0.074656464890772628 0.074857595951680442 -0.11882237415540836 -0.016531379582114442 -0.11012773924064256 0.0724833448995644 0.0028537783232922827 -0.035303243806083219 0.028622569785434034 0.037273540781250239 0.034352203248710293 0.062889037289154376 -0.052363098363927489 0.09206814097759293 -0.0083164668211893628 -0.14526718373720671 0.057551001574578903 -0.088786566208357412
leaf_weight=9.0740477293729764 312.2724825963378 198.85848532617092 23.239990279078484 109.37653093785048 8.3485587984323484 107.26068403571844 67.272204384207726 5.8750562965869895 28.499761641025543 32.531146846711636 37.807988941669464 103.6929158270359 5.5687962025404003 12.548031188547609 8.1534778177738172 25.87819167971611 8.9829047471284778 10.644059821963308 31.729818537831314 82.402042180299759 113.77037476748228 61.489196859300137 5.4370924830436733 13.35262595117092 8.0839976295828837 8.0349730998277646 5.4241901636123684 12.977113887667654 4.6458063423633567 10.080578260123728
leaf_count=44 1488 909 112 483 37 635 411 27 128 160 170 458 27 59 37 114 41 49 141 385 507 270 24 65 36 36 24 57 20 46
internal_value=0 0.00413314 0.00673596 0.0153171 -0.00300236 0.0364939 0.0167704 -0.0382102 0.00307346 -0.012324 0.015474 -0.0233373 -0.0212386 0.0288996 -0.0283964 -0.0556 -0.0160477 -0.00247679 -0.0220746 -0.0262998 0.00235369 -0.00802347 0.0148488 -0.0110165 -0.0357136 0.0196329 -0.0731376 -0.104898 0.0204577 -0.0426207
internal_weight=0 1161.04 1069.56 568.562 501.002 215.89 108.629 73.7339 427.268 190.602 236.666 158.071 41.3568 18.1168 67.8588 54.378 59.7053 51.3568 40.7127 91.4761 352.672 224.176 114.799 53.31 39.9574 16.119 23.8384 18.4013 128.497 14.7264
internal_count=7000 5512 5083 2812 2271 1244 609 332 1939 860 1079 700 198 86 305 242 268 231 182 429 1568 995 512 242 177 72 105 81 573 66
is_linear=0
shrinkage=0.1


Tree=25
num_leaves=31
num_cat=0
split_feature=24 24 27 0 26 22 9 25 11 19 9 25 10 24 8 0 17 14 5 21 3 26 12 25 17 18 11 7 12 22
split_gain=8.77631 17.6908 13.4256 10.8906 9.88768 8.45764 9.40632 8.41309 8.14534 7.89618 7.81923 7.25085 7.1869 7.15835 6.5967 12.0199 6.47611 8.41643 6.33745 6.27962 6.08324 7.99317 7.90036 7.39557 6.92812 6.46592 7.87933 5.86995 8.16443 5.75317
threshold=0.74850000000000005 0.96750000000000014 0.9105000000000002 1.3550000000000002 0.8045000000000001 1.0525000000000002 0.69150000000000011 1.0745000000000002 0.48750000000000004 1.4845000000000004 0.62150000000000005 0.71550000000000014 1.0565000000000002 0.79350000000000021 1.6300000000000001 0.63650000000000018 1.2835000000000003 -0.70249999999999979 0.65250000000000019 0.99250000000000005 1.3655000000000002 0.88150000000000006 1.6610000000000003 0.9255000000000001 1.2835000000000003 0.19350000000000003 1.0000000180025095e-35 1.0000000180025095e-35 1.6610000000000003 1.0525000000000002
decision_type=2 2 2 2 2 2 2 2 2 2 2 2 2 2 2 2 2 2 2 2 2 2 2 2 2 2 2 2 2 2
left_child=9 2 4 5 -2 6 10 11 19 20 -4 -6 18 -7 -15 -16 17 -11 27 -9 21 22 23 -1 -25 -22 -27 28 -13 -24
right_child=1 -3 3 -5 7 13 -8 8 -10 16 -12 12 -14 14 15 -17 -18 -19 -20 -21 25 -23 29 24 -26 26 -28 -29 -30 -31
leaf_value=0.037813560565312342 -0.028123835445478931 0.0071437709813942894 -0.037007194935002791 -0.089188346791011675 -0.010372169867339978 0.073903482450824273 -0.073450909539250958 -0.068483189184569596 0.022346030096100443 0.054562686986416489 0.11730885447113129 -0.16194205135621825 0.1006249278579235 0.013889143927102585 -0.15930196503675775 0.0043308491713664769 0.075012939228300546 -0.096987878322695245 0.039626088584512636 0.022547444670757741 -0.052796615455436083 0.054954493567424982 -0.02931732794680654 -0.065505683983069343 0.07436432635579851 0.092295747884353685 -0.044495128049088985 0.032330789327102288 0.020726247065073415 0.059760557300777853
leaf_weight=112.17419332265854 136.65077422559261 634.49653491377831 9.0526148676872236 37.434606336057186 52.136293217539787 10.748147323727606 49.016081765294075 34.463792145252228 25.689266622066498 4.7567692846059861 5.1524003669619551 5.4296625331044215 14.573152162134646 28.15751414000988 7.6216565370559719 10.922290891408919 4.1255012303590766 15.958384677767752 62.813497245311737 9.7140250951051694 22.255771361291409 65.859815560281277 49.43336296081543 13.981006324291231 4.7426124811172476 9.1271559596061724 7.8176417499780646 8.9006280452012998 4.4538927003741264 8.4967163503169996
leaf_count=505 596 2966 44 207 234 50 265 152 110 22 25 28 95 124 36 50 22 78 387 41 108 360 219 61 21 45 39 47 25 38
internal_value=0 -0.00402038 -0.0178305 -0.0420671 -0.00703096 -0.0274491 -0.052686 0.00618031 -0.0224299 0.014737 0.0189659 0.0196585 0.0359388 0.000323191 -0.016611 -0.0629231 -0.0394016 -0.0621877 0.024386 -0.0484669 0.0193131 0.0249575 0.014495 0.0281025 -0.0300772 -0.0173589 0.029186 -0.0265763 -0.079625 -0.0162521
internal_weight=0 1147.43 512.93 158.105 354.825 120.671 63.2211 218.174 69.8671 318.729 14.205 148.307 96.1708 57.4496 46.7015 18.5439 24.8407 20.7152 81.5977 44.1778 293.888 254.688 188.828 130.898 18.7236 39.2006 16.9448 18.7842 9.88356 57.9301
internal_count=7000 5482 2516 801 1715 594 334 1119 303 1518 69 816 582 260 210 86 122 100 487 193 1396 1204 844 587 82 192 84 100 53 257
is_linear=0
shrinkage=0.1


Tree=26
num_leaves=31
num_cat=0
split_feature=25 5 24 13 17 24 7 10 10 1 2 26 6 15 27 19 0 1 5 23 17 8 5 17 0 24 27 17 7 26
split_gain=7.6066 9.38524 13.6881 8.5296 7.33657 10.6629 7.00458 7.89499 6.79505 6.61371 11.6463 6.89837 6.56283 8.12434 6.3575 7.78321 6.1427 6.33095 5.79775 5.71169 5.44055 5.38491 9.22118 7.80791 10.4119 8.23931 7.32242 8.77511 7.47213 6.88992
threshold=1.7615000000000001 1.7145000000000004 1.5840000000000003 1.7570000000000003 1.4595000000000002 1.3475000000000004 -0.60249999999999992 -1.0000000180025095e-35 -1.458 0.83450000000000013 -0.59399999999999986 0.6755000000000001 -0.77449999999999986 0.7360000000000001 1.4395000000000002 0.99250000000000005 0.56250000000000011 -0.40649999999999992 1.4045000000000003 0.98850000000000005 0.95950000000000013 1.6300000000000001 0.65250000000000019 1.2835000000000003 0.63650000000000018 1.1075000000000002 0.83950000000000002 1.0515000000000001 1.3030000000000002 0.91350000000000009
decision_type=2 2 2 2 2 2 2 2 2 2 2 2 2 2 2 2 2 2 2 2 2 2 2 2 2 2 2 2 2 2
left_child=1 8 3 -3 6 19 7 -2 12 14 11 -11 -1 -14 21 16 -16 -18 -12 -6 -4 26 -23 25 -25 -24 27 -10 29 -28
right_child=4 2 20 -5 5 -7 -8 -9 9 10 18 -13 13 -15 15 -17 17 -19 -20 -21 -22 22 23 24 -26 -27 28 -29 -30 -31
leaf_value=-0.059584463625923512 -0.061442605038478815 0.035967894779615317 -0.1498434241911081 0.12652698683212757 0.060501369488184797 0.11196914526792311 -0.065267428752474918 0.05305491416117078 0.00038135442050062676 -0.12405773009977408 -0.0010782288417970282 -0.031770335118367153 0.016895157960054804 -0.061177854472205945 0.015402837885995982 0.053226208450391756 -0.13293516463704316 -0.016717322379668956 0.078982919111439939 -0.078820493275901266 -0.0079084459497236696 -0.016315605082468293 0.018757355946243275 -0.098577556591598489 0.015060295426953694 0.057381212231031778 -0.047003192034200544 0.038587093827614487 0.037216391646821188 -0.0068588650187634175
leaf_weight=35.523629002273083 11.084231771528723 47.776379831135273 4.4753359109163267 13.295032396912573 4.4172232151031521 8.3581969141960126 47.506614282727242 13.186975821852682 184.78851775079966 8.9888615161180478 161.17218457907438 81.869003035128117 45.401189044117928 18.86773881316185 7.7486221045255688 7.7354862689971915 12.529770568013193 7.4888324514031401 9.5829625576734525 8.8142348453402501 6.8102250322699547 66.815449856221676 167.10519846528769 11.04211802780628 29.882097490131855 82.497010938823223 56.133956424891949 89.104991748929024 29.182925403118134 179.35035035014153
leaf_count=169 59 253 21 75 23 38 253 71 861 40 766 392 210 88 34 35 55 34 47 52 31 306 835 52 152 384 262 435 135 832
internal_value=0 0.00193773 0.0369852 0.0556823 -0.027565 0.0235467 -0.0429387 0.00076592 -2.38331e-05 0.00207295 -0.0119758 -0.0409006 -0.0250909 -0.00602511 0.00601898 -0.0354835 -0.0601965 -0.0894588 0.00341489 -0.0323089 -0.0641933 0.00766363 0.0171814 0.024885 -0.0156013 0.0315231 0.00134848 0.0128107 -0.0105133 -0.0164283
internal_weight=0 1365.17 72.357 61.0714 93.3675 21.5897 71.7778 24.2712 1292.81 1193.02 261.613 90.8579 99.7926 64.2689 931.405 35.5027 27.7672 20.0186 170.755 13.2315 11.2856 895.903 357.342 290.526 40.9242 249.602 538.561 273.894 264.667 235.484
internal_count=7000 6504 380 328 496 113 383 130 6124 5657 1245 432 467 298 4412 158 123 89 813 75 52 4254 1729 1423 204 1219 2525 1296 1229 1094
is_linear=0
shrinkage=0.1


Tree=27
num_leaves=31
num_cat=0
split_feature=24 24 27 22 26 0 21 27 8 19 13 13 25 21 6 12 22 5 18 3 25 22 13 23 18 0 4 11 10 18
split_gain=7.27236 14.0219 10.8942 14.606 11.4998 8.59763 8.72042 7.94369 7.63772 7.09456 7.75799 6.2922 6.09897 6.00884 5.99064 5.66127 5.51731 5.4689 5.88957 6.47962 7.40893 5.36768 11.7423 6.72052 5.34699 5.33814 8.89407 8.74973 7.83436 5.28503
threshold=0.74850000000000005 0.96750000000000014 0.83950000000000002 0.97750000000000015 0.8045000000000001 1.5835000000000001 0.89450000000000018 1.0965000000000003 1.0000000180025095e-35 0.72600000000000009 0.44950000000000007 1.4675000000000002 1.0745000000000002 0.99250000000000005 1.0000000180025095e-35 1.0000000180025095e-35 0.89150000000000007 1.1265000000000003 -0.19449999999999998 0.88350000000000006 0.82950000000000002 0.70750000000000013 0.6925 1.0015000000000003 0.83750000000000002 0.63650000000000018 -1.0074999999999996 0.24550000000000002 -0.40199999999999997 -0.8224999999999999
decision_type=2 2 2 2 2 2 2 2 2 2 2 2 2 2 2 2 2 2 2 2 2 2 2 2 2 2 2 2 2 2
left_child=9 2 4 8 11 6 7 -5 13 14 -11 -2 17 -4 -1 -15 -10 18 -6 -20 24 22 23 -3 -21 -8 -27 29 -29 -28
right_child=1 21 3 5 12 -7 25 -9 16 10 -12 -13 -14 15 -16 -17 -18 -19 19 20 -22 -23 -24 -25 -26 26 27 28 -30 -31
leaf_value=0.039076329024983827 -0.02965591308872393 -0.07441266170812133 -0.10306505790912064 0.075163963608314593 -0.012146538738325226 -0.07331320608141885 -0.051739778074369615 -0.051645479399117261 -0.0041362625037587759 -0.096104019355332415 -0.00013146472924468046 0.080403688529897724 -0.015315385073297974 -0.11383240806258016 0.0063644219320314194 0.024270344420530141 -0.067746855152830535 0.084570180753155394 0.068417555571435459 -0.0051838521019486267 0.082366993890093429 0.0037375368217737515 0.083727539958078356 0.049353696346640469 -0.14062788704101242 0.09566252772013395 -0.14629424929333909 -0.051155241101506148 0.083134939015406362 -0.03110864589873126
leaf_weight=114.37762229144573 119.31996551156044 10.324422441422941 42.095399983227253 23.437319889664654 34.855679258704185 17.427526615560055 26.451355636119843 6.2591623812913886 30.975398026406765 9.375755846500395 82.866008087992668 5.4309709072113028 43.007270842790604 4.6202374026179305 109.65653122961521 8.3019959926605207 24.35773928463459 15.343498222529886 32.875532165169716 10.42367832362652 6.9824360534548751 588.38317033648491 25.528390660881996 7.6293519809842101 4.0460181236267081 8.7059895843267423 5.2448269426822689 6.8257027864456203 11.94970281422138 16.561987824738026
leaf_count=556 521 52 227 122 194 88 125 30 163 42 394 25 185 25 526 42 139 106 183 51 41 2742 133 39 19 42 24 31 56 77
internal_value=0 -0.0036881 -0.0161019 -0.0319644 -0.00251557 -0.00824716 0.00250761 0.0484362 -0.058371 0.0134548 -0.00988643 -0.0248645 0.0163821 -0.0847547 0.023065 -0.0251071 -0.0321378 0.029424 0.0199364 0.0405202 -0.00223267 0.00624311 0.0401475 -0.0218189 -0.0430567 -0.0155004 0.00394811 -0.0157271 0.0343144 -0.0588123
internal_weight=0 1137.36 505.499 233.214 272.285 122.864 105.436 29.6965 110.351 316.276 92.2418 124.751 147.534 55.0176 224.034 12.9222 55.3331 104.527 89.1833 54.3277 21.4521 631.865 43.4822 17.9538 14.4697 75.7396 49.2882 40.5822 18.7754 21.8068
internal_count=7000 5482 2516 1191 1325 595 507 152 596 1518 436 546 779 294 1082 67 302 594 488 294 111 2966 224 91 70 355 230 188 87 101
is_linear=0
shrinkage=0.1


Tree=28
num_leaves=31
num_cat=0
split_feature=22 22 27 24 3 17 11 1 1 5 15 18 15 23 5 2 27 0 4 5 6 20 23 6 24 26 11 27 17 15
split_gain=6.75282 9.10215 10.2867 9.82451 9.92746 8.58712 7.9108 7.34348 6.77004 8.9677 8.70594 9.71478 8.06936 7.69325 6.28022 6.32038 6.47812 6.26949 5.89176 8.27173 7.14076 5.85601 5.63056 5.45999 5.26312 6.58682 5.47207 5.30817 7.97777 6.03766
threshold=1.0525000000000002 0.70750000000000013 1.0965000000000003 1.3475000000000004 1.2195000000000003 0.87050000000000016 1.2575000000000001 -1.1454999999999997 0.83450000000000013 0.71450000000000002 -1.2349999999999997 0.19350000000000003 0.50150000000000017 0.99550000000000016 0.58050000000000013 -1.1784999999999999 0.75650000000000006 0.47950000000000004 -1.24 0.84050000000000014 0.58250000000000013 2.3265000000000002 0.99050000000000005 0.58250000000000013 0.74850000000000005 0.8045000000000001 -1.2344999999999999 1.0195000000000001 0.6625000000000002 -0.48149999999999993
decision_type=2 2 2 2 2 2 2 2 2 2 2 2 2 2 2 2 2 2 2 2 2 2 2 2 2 2 2 2 2 2
left_child=1 5 8 17 7 6 -1 -5 -3 14 21 12 -12 -13 15 -10 23 -4 -6 -20 -21 -11 -14 -17 -2 -26 -27 28 29 -28
right_child=24 2 3 4 18 -7 -8 -9 9 10 11 13 22 -15 -16 16 -18 -19 19 20 -22 -23 -24 -25 25 26 27 -29 -30 -31
leaf_value=0.017365779435982692 0.0332844166767398 0.0013563693193599775 0.0064223357459815 -0.071122368639400954 -0.13033045857006031 0.067940659152556912 -0.08670054452741105 0.067132979196203021 -0.088418579663976024 0.026787418913807922 -0.090738716432879063 -0.011563194831725866 0.066158038209686881 0.074662323944452796 -0.082259508728866629 0.019581666508230691 0.056857889937239239 -0.075146338396517715 0.090165420659060372 -0.087381322921951998 0.047539998142977692 0.16591535678358063 -0.052479216892655361 -0.11655380375111404 -0.058094523419509131 -0.023326770703038034 -0.07258013607630856 0.0031013021784919914 0.049500680815875268 0.024853909747710793
leaf_weight=59.255361579358578 83.368053942918777 646.27008191496134 11.421794697642325 4.6991997361183193 6.0795472115278271 31.231696769595146 8.3317529931664449 21.05682335793972 9.7364048957824689 9.6132210195064527 22.323096588253975 32.733803495764732 7.4132234752178219 15.130521945655344 31.474265798926353 6.0856107920408267 12.567424297332762 53.84368535131216 5.3128454387187984 14.318277269601824 5.4028698503971091 4.4146487712860099 8.6897840127348882 5.7107561677694321 15.677733078598974 46.562977112829685 10.72392448037863 169.8287100866437 72.081422425806522 15.628180362284182
leaf_count=300 423 3101 62 20 28 158 42 93 45 47 111 161 35 75 143 27 59 324 24 67 25 22 43 26 68 213 48 751 384 75
internal_value=0 -0.0042858 -0.00733843 -0.0343966 -0.00401311 0.0245758 0.00453708 0.0419082 -0.00326936 -0.0212899 -0.00249221 -0.0143699 -0.0518178 0.0156938 -0.0500473 -0.0203156 0.00690013 -0.0608714 -0.0420271 -0.0205825 -0.0504178 0.0705718 0.00213695 -0.0463231 0.0108313 0.00516756 0.0083179 0.0138105 0.0322873 -0.0147966
internal_weight=0 1033.12 934.298 122.135 56.8696 98.8188 67.5871 25.756 812.163 165.893 100.318 86.2904 38.4261 47.8643 65.5745 34.1002 24.3638 65.2655 31.1135 25.034 19.7211 14.0279 16.103 11.7964 413.871 330.503 314.825 268.262 98.4335 26.3521
